tree
version=v4
num_class=1
num_tree_per_iteration=1
label_index=0
max_feature_idx=67
objective=regression
feature_names=Column_0 Column_1 Column_2 Column_3 Column_4 Column_5 Column_6 Column_7 Column_8 Column_9 Column_10 Column_11 Column_12 Column_13 Column_14 Column_15 Column_16 Column_17 Column_18 Column_19 Column_20 Column_21 Column_22 Column_23 Column_24 Column_25 Column_26 Column_27 Column_28 Column_29 Column_30 Column_31 Column_32 Column_33 Column_34 Column_35 Column_36 Column_37 Column_38 Column_39 Column_40 Column_41 Column_42 Column_43 Column_44 Column_45 Column_46 Column_47 Column_48 Column_49 Column_50 Column_51 Column_52 Column_53 Column_54 Column_55 Column_56 Column_57 Column_58 Column_59 Column_60 Column_61 Column_62 Column_63 Column_64 Column_65 Column_66 Column_67
feature_infos=[-1.1727586984634399:3] [-3:3] [-3:3] [-3:3] [-3:2.6820108890533447] [-2.4897086620330811:3] [-3:2.2717540264129639] [-0.23218066990375519:3] [-3:3] [-3:0.51015013456344604] [-1.878209114074707:3] [-3:3] [-3:0.12825743854045868] [-3:3] [-1.5637717247009277:3] [-3:3] [-0.80617117881774902:3] [-3:3] [-3:3] [-0.56666046380996704:3] [-3:0.13559715449810028] [-0.92268991470336914:3] [-3:0.13469576835632324] [-0.56887620687484741:3] [-3:0.82282161712646484] [-3:0.87471652030944824] [-3:1.0038164854049683] [-3:3] [-0.12907332181930542:3] [-3:3] [-3:1.0509858131408691] [-3:0.87451905012130737] [-3:3] [-3:3] [-3:3] [-0.73424732685089111:3] [-0.8764272928237915:3] [-0.55559742450714111:3] [-3:3] [-0.59587562084197998:3] [-3:0.5564427375793457] [-0.87471479177474976:3] [-0.56512355804443359:3] [-3:0.56512361764907837] [-0.56666046380996704:3] [-0.37134981155395508:3] [-0.22883462905883789:3] [-3:3] [-0.58106321096420288:3] [-0.81245672702789307:3] [-0.99857616424560547:3] [-3:0.56740033626556396] [-0.87471652030944824:3] [-3:3] [-0.13489887118339539:3] [-0.56666052341461182:3] [-3:3] none [-0.87471657991409302:3] [-0.83918499946594238:3] [-3:1.0629212856292725] [-0.57714492082595825:3] [-0.54758411645889282:3] [-0.54600071907043457:3] [-0.56740033626556396:3] [-0.63352537155151367:3] [-0.59400260448455811:3] [-3:3]
tree_sizes=1370 1271 1555 895 1262 1179 1275 1071 984 1177 1293 1372 980 902 791 617 1171 1074 1086 873

Tree=0
num_leaves=13
num_cat=0
split_feature=15 15 1 64 7 63 17 56 39 39 39 36
split_gain=26.4747 43.4919 14.4877 8.74778 6.37172 6.21558 4.78204 4.56088 3.75216 1.38951 1.02979 0.987601
threshold=0.76427379250526439 -0.23994982987642285 -0.30558612942695612 0.2229530140757561 -0.088903307914733873 -0.35094104707241053 -0.89160355925559986 -0.022943227551877495 -0.21527712047100064 -0.30557160079479212 -0.30009329319000239 0.19031487405300143
decision_type=2 2 2 2 2 2 2 2 2 2 2 2
left_child=1 2 5 -4 6 -1 -3 10 9 -9 -2 -6
right_child=7 4 3 -5 11 -7 -8 8 -10 -11 -12 -13
leaf_value=-0.0048466608897042469 0.0072316132914217839 -0.0026849068655447998 -0.0018003506947177964 -0.011353177246577631 0.0006331612140758299 -0.017968817418605891 0.0054459803624095533 0.011047628966888932 0.017494553251323583 0.0049940891676245897 0.0022750716781624351 -0.0029379657658652287
leaf_weight=1069 1556 1863 7372 3049 17344 3383 12869 1948 1445 1519 2396 1937
leaf_count=1069 1556 1863 7372 3049 17344 3383 12869 1948 1445 1519 2396 1937
internal_value=0.000410518 -0.000889556 -0.00765547 -0.00459541 0.00206898 -0.0148181 0.0044177 0.00802041 0.0110725 0.0083956 0.00422677 0.000274439
internal_weight=0 48886 14873 10421 34013 4452 14732 8864 4912 3467 3952 19281
internal_count=57750 48886 14873 10421 34013 4452 14732 8864 4912 3467 3952 19281
is_linear=0
shrinkage=0.5


Tree=1
num_leaves=12
num_cat=0
split_feature=12 1 16 59 30 53 3 59 30 30 17
split_gain=10.3332 48.1789 20.0528 10.8411 10.8725 6.91319 6.56334 4.53047 4.06125 1.124 1.06674
threshold=0.085035867989063277 -0.23588833212852475 0.067498017102479949 2.286137700080872 0.26272918283939367 0.097501408308744444 0.99862194061279308 -0.53607183694839466 0.076466370373964324 0.13204813748598102 0.066777881234884276
decision_type=2 2 2 2 2 2 2 2 2 2 2
left_child=1 2 9 4 6 8 -2 -6 -3 -1 -7
right_child=3 5 -4 -5 7 10 -8 -9 -10 -11 -12
leaf_value=-0.0061759689895773684 0.0056123159845853504 0.00344435922588553 -0.029338383983073826 -0.0092985639894868442 0.0058338898417028551 -0.0086728823244501575 -0.0014996416933112985 -0.0018824289743718393 -9.9400296635514726e-05 -0.011010448925632025 -0.0031868584591363035
leaf_weight=1306 13559 8494 1071 1381 1459 1251 2548 9120 14423 2035 1103
leaf_count=1306 13559 8494 1071 1381 1459 1251 2548 9120 14423 2035 1103
internal_value=0 -0.00163185 -0.0140287 0.00180916 0.002384 0.000532465 0.00448722 -0.000818174 0.00121404 -0.00912084 -0.0061026
internal_weight=0 29683 4412 28067 26686 25271 16107 10579 22917 3341 2354
internal_count=57750 29683 4412 28067 26686 25271 16107 10579 22917 3341 2354
is_linear=0
shrinkage=0.128571


Tree=2
num_leaves=15
num_cat=0
split_feature=2 2 12 38 3 15 30 5 15 38 15 38 15 56
split_gain=59.8693 48.0529 20.366 17.8018 5.43835 17.0261 7.21117 4.37936 6.40711 4.93978 3.67132 2.74625 2.05302 0.805549
threshold=1.0000000180025095e-35 -0.89419665932655323 0.083431646227836623 -0.35352717339992518 0.35572926700115209 0.069117493927478804 0.51970848441123974 -0.90937930345535267 -0.035455657169222825 0.2370102405548096 -0.3920884877443313 0.56875786185264599 0.30274185538291937 0.057094877585768707
decision_type=2 2 2 2 2 2 2 2 2 2 2 2 2 2
left_child=1 2 3 -1 6 10 13 8 -3 -9 -6 -4 -7 -2
right_child=4 7 11 -5 5 12 -8 9 -10 -11 -12 -13 -14 -15
leaf_value=-0.027191011510931971 0.0047609474608236221 -0.0089330804211872773 -0.0073342371836360104 -0.011176610078100387 -0.0078589098994056219 0.00068194046741667049 -0.00069374558462817883 -0.0016858544388471735 -9.4528859669634117e-05 0.0014522961574139931 -0.00097965012682684665 -0.0014575712811185741 0.0052249483343600502 0.0062556258001607726
leaf_weight=1009 9510 1543 2039 2225 1597 1210 2285 11397 1751 8959 1509 1304 5598 5814
leaf_count=1009 9510 1543 2039 2225 1597 1210 2285 11397 1751 8959 1509 1304 5598 5814
internal_value=0 -0.00295475 -0.0105155 -0.0161732 0.00349188 0.00161841 0.00454663 -0.000852107 -0.0042349 -0.00030468 -0.00451689 -0.00504208 0.00441758 0.00532807
internal_weight=0 30227 6577 3234 27523 9914 17609 23650 3294 20356 3106 3343 6808 15324
internal_count=57750 30227 6577 3234 27523 9914 17609 23650 3294 20356 3106 3343 6808 15324
is_linear=0
shrinkage=0.1


Tree=3
num_leaves=8
num_cat=0
split_feature=9 27 8 9 24 17 33
split_gain=25.1035 24.2479 28.7589 6.85677 3.50557 2.9742 1.46007
threshold=-0.10659247636795043 -0.071405678987503038 0.21545608341693881 0.3465405553579331 0.16423440724611285 0.56997013092041027 0.16175217926502231
decision_type=2 2 2 2 2 2 2
left_child=-1 3 6 5 -4 -2 -3
right_child=1 2 4 -5 -6 -7 -8
leaf_value=-0.011625651749082241 0.00093877855821459708 0.00027270357087754685 -0.0040545934466251817 0.0076112850470274468 -0.0088630492945045714 0.0027595575628384999 -0.0025747441124491996
leaf_weight=1318 27688 11869 1573 1342 3820 8651 1489
leaf_count=1318 27688 11869 1573 1342 3820 8651 1489
internal_value=0 0.00034109 -0.0021776 0.00159446 -0.00746063 0.00137225 -4.46659e-05
internal_weight=0 56432 18751 37681 5393 36339 13358
internal_count=57750 56432 18751 37681 5393 36339 13358
is_linear=0
shrinkage=0.0857143


Tree=4
num_leaves=12
num_cat=0
split_feature=2 67 31 21 29 0 65 29 0 34 21
split_gain=66.4173 19.2041 15.6118 8.48884 4.63536 16.2623 12.0108 11.7353 7.06359 1.50047 0.776184
threshold=-0.49192751944065088 -0.035964831709861748 0.077199898660182967 -0.53961810469627369 0.2688059806823731 1.5189529061317446 -0.023131729103624817 0.060920841991901405 0.069684918969869628 -0.06226746737957 -0.62284883856773365
decision_type=2 2 2 2 2 2 2 2 2 2 2
left_child=1 2 -1 10 5 7 -6 -2 -8 -5 -3
right_child=4 3 -4 9 6 -7 8 -9 -10 -11 -12
leaf_value=-0.0095441280182150083 1.3961762877642751e-05 0.0022174761604148059 -0.025370447046472372 -0.010476288079326317 0.00025736809050231149 0.017495659355126019 0.0058336421702429439 0.0056915591573356104 0.02053761294998261 -0.0054878342688440013 -0.0022553285493058547
leaf_weight=2917 30608 2022 1813 2664 2987 1134 1192 8301 1153 1822 1061
leaf_count=2917 30608 2022 1813 2664 2987 1134 1192 8301 1153 1822 1061
internal_value=0 -0.00891582 -0.0156105 -0.00473213 0.00218003 0.00168605 0.00588966 0.00122526 0.0130636 -0.00845036 0.000677964
internal_weight=0 12299 4730 7569 45375 40043 5332 38909 2345 4486 3083
internal_count=57674 12299 4730 7569 45375 40043 5332 38909 2345 4486 3083
is_linear=0
shrinkage=0.133929


Tree=5
num_leaves=11
num_cat=0
split_feature=15 5 20 1 15 15 13 30 13 13
split_gain=30.6914 7.70899 9.64361 6.29884 6.00729 3.94875 3.29348 2.58832 2.04827 1.21794
threshold=-1.0494428873062132 0.4507033377885819 0.093654759228229537 -0.020287561230361458 -0.035455657169222825 0.47932702302932745 -0.11818841844797133 0.18157339841127398 0.27082455158233648 -1.0000000180025095e-35
decision_type=2 2 2 2 2 2 2 2 2 2
left_child=1 2 -1 4 7 8 -6 -2 -5 -7
right_child=3 -3 -4 5 6 9 -8 -9 -10 -11
leaf_value=-0.022719367234899063 -0.0017993266607661961 -0.0025738568330419282 -0.0017875242234109434 0.00079413169329251411 -0.0035984787899203409 0.0040539325722263736 0.0027785113710210342 -0.0087000976261767567 0.0075914327983631728 0.0080447518914626842
leaf_weight=3085 3704 1737 1033 16894 3853 5724 10907 3948 1717 5072
leaf_count=3085 3704 1737 1033 16894 3853 5724 10907 3948 1717 5072
internal_value=0 -0.0130501 -0.0174688 0.00127148 -0.00109644 0.00307617 0.00111378 -0.00535986 0.00142128 0.00592892
internal_weight=0 5855 4118 51819 22412 29407 14760 7652 18611 10796
internal_count=57674 5855 4118 51819 22412 29407 14760 7652 18611 10796
is_linear=0
shrinkage=0.1875


Tree=6
num_leaves=12
num_cat=0
split_feature=27 24 1 12 0 7 54 17 12 3 28
split_gain=20.9247 8.53521 11.6765 8.21838 6.28412 6.27911 3.67967 3.25026 1.98945 1.67502 1.59634
threshold=0.06707420572638513 0.58290666341781627 -0.13956055790185926 0.087176896631717696 0.25589929521083837 -0.084039326757192598 -0.084125295281410203 0.28795723617076879 0.081825602799654021 0.18232024461030963 -0.082977559417486177
decision_type=2 2 2 2 2 2 2 2 2 2 2
left_child=4 2 8 -3 5 6 -1 -6 -2 -7 -4
right_child=1 3 10 -5 7 9 -8 -9 -10 -11 -12
leaf_value=0.0015608316820773134 -0.005624683078402453 -0.0091882104805743412 -0.0007573239810678491 -0.0021720600130920339 0.0045996476370597722 -0.00019807399944018334 -0.00016709750794812101 0.0011563864355442022 -0.0026840794939657344 -0.0014439607983869293 0.0020894532033974675
leaf_weight=14354 1704 1351 1206 1261 1963 16551 7243 2357 1903 5656 2125
leaf_count=14354 1704 1351 1206 1261 1963 16551 7243 2357 1903 5656 2125
internal_value=0 -0.00275588 -0.00160937 -0.00580113 0.000446823 0.000222527 0.00098132 0.00272107 -0.00407335 -0.000515409 0.00105867
internal_weight=0 9550 6938 2612 48124 43804 21597 4320 3607 22207 3331
internal_count=57674 9550 6938 2612 48124 43804 21597 4320 3607 22207 3331
is_linear=0
shrinkage=0.0625


Tree=7
num_leaves=10
num_cat=0
split_feature=2 0 38 24 41 3 33 3 3
split_gain=9.58063 7.30245 6.13543 5.01449 4.39167 3.36956 2.66469 1.70874 0.94102
threshold=0.39106045663356787 0.39128616452217108 -0.59115231037139881 0.31382200121879583 -0.13424386829137799 0.93964323401451122 -0.32291348278522486 0.11069307476282121 1.3782976269721987
decision_type=2 2 2 2 2 2 2 2 2
left_child=2 5 4 -3 -1 -2 7 -4 -8
right_child=1 3 6 -5 -6 -7 8 -9 -10
leaf_value=-0.0042595283026579658 0.003935471410386966 0.027664624702257855 -0.0015297999694285302 0.0072171711597337502 -0.019118258498770985 -0.0081404171253237467 -0.00072694300760274653 -0.014452707851633271 0.0059833096512802459
leaf_weight=3080 11428 1311 1142 1751 2085 1653 32409 1454 1361
leaf_count=3080 11428 1311 1142 1751 2085 1653 32409 1454 1361
internal_value=0 0.00498205 -0.00219504 0.0159722 -0.0102579 0.00240939 -0.00104985 -0.0087683 -0.000456469
internal_weight=0 16143 41531 3062 5165 13081 36366 2596 33770
internal_count=57674 16143 41531 3062 5165 13081 36366 2596 33770
is_linear=0
shrinkage=0.25


Tree=8
num_leaves=9
num_cat=0
split_feature=45 5 7 17 5 19 5 21
split_gain=8.80378 6.74152 6.57566 8.778 8.24114 3.54035 3.42713 1.27252
threshold=0.067619536072015776 -1.0899624824523924 0.086712863296270384 0.22180621325969699 0.34265619516372686 -0.38302652537822718 -0.40254376828670496 0.12757039070129397
decision_type=2 2 2 2 2 2 2 2
left_child=2 -2 3 5 -4 -1 -5 -3
right_child=1 7 4 6 -6 -7 -8 -9
leaf_value=0.0048054002170495429 -0.017663803586836266 0.0005073253359665136 -0.017071936123504008 0.00073737889301759858 0.0028823094342517799 -0.0014151159222112618 0.0059652233428892218 -0.0061895908181015761
leaf_weight=3243 1432 1628 1474 6111 1195 29068 11570 2036
leaf_count=3243 1432 1628 1474 6111 1195 29068 11570 2036
internal_value=0 -0.00727446 0.000498553 0.000959633 -0.00813742 -0.000790746 0.0041584 -0.00321375
internal_weight=0 5096 52661 49992 2669 32311 17681 3664
internal_count=57757 5096 52661 49992 2669 32311 17681 3664
is_linear=0
shrinkage=0.178571


Tree=9
num_leaves=11
num_cat=0
split_feature=2 53 66 17 31 3 15 66 31 17
split_gain=24.6796 9.1297 12.3397 7.30143 6.91781 6.66139 6.45435 5.50312 3.50304 0.965468
threshold=-0.58432659506797779 0.046564333140850074 -0.23585113883018491 0.65722301602363598 0.11394554004073144 -0.65396401286125172 0.40557299554347997 -0.11574617773294447 0.37998825311660772 -0.51736620068550099
decision_type=2 2 2 2 2 2 2 2 2 2
left_child=1 5 -3 6 -5 -1 9 -7 -6 -2
right_child=3 2 -4 4 8 7 -8 -9 -10 -11
leaf_value=0.006159402851443339 -0.0036300428771709808 -0.002738754021990687 -0.025378148197658622 0.0099312238645770726 0.0074951850648852991 -0.0024579421792484185 0.0031792000642479235 -0.013390460608466898 -0.0048338776909617256 -0.00082709364857028352
leaf_weight=1496 5159 1316 1843 5734 1143 3413 16714 2577 2058 16304
leaf_count=1496 5159 1316 1843 5734 1143 3413 16714 2577 2058 16304
internal_value=0 -0.00789663 -0.0159471 0.00162354 0.00621875 -0.00449929 0.000548053 -0.00716145 -0.000431187 -0.00150087
internal_weight=0 10645 3159 47112 8935 7486 38177 5990 3201 21463
internal_count=57757 10645 3159 47112 8935 7486 38177 5990 3201 21463
is_linear=0
shrinkage=0.178571


Tree=10
num_leaves=12
num_cat=0
split_feature=27 51 34 31 31 3 48 30 30 66 14
split_gain=16.1499 8.19817 7.06993 5.03711 9.95677 4.62417 4.17491 3.85177 2.89085 1.70645 1.31039
threshold=-1.0000000180025095e-35 0.37756955623626715 -0.15037123858928678 0.077121227979660048 0.31503225862979894 -0.65396401286125172 -0.36530247330665583 0.43314902484416967 0.41481567919254309 -0.31784839928150171 -0.44461019337177271
decision_type=2 2 2 2 2 2 2 2 2 2 2
left_child=2 3 5 8 -5 -1 10 -8 -2 -7 -4
right_child=1 -3 6 4 -6 9 7 -9 -10 -11 -12
leaf_value=0.00096162641565765102 -0.00025188374782670285 -0.0046206563359769718 0.00097468138355293347 0.0012389579597453723 -0.003333609149828335 -3.6864051934708681e-05 0.00077131548333676694 -0.00037696128333062728 -0.0025806468644685777 -0.0015157399755244467 0.002467548031784856
leaf_weight=2417 10388 1111 1677 1120 3157 1809 20294 6761 1016 5396 2611
leaf_count=2417 10388 1111 1677 1120 3157 1809 20294 6761 1016 5396 2611
internal_value=0 -0.00116181 0.000372522 -0.000916733 -0.00213616 -0.000615399 0.000675811 0.000484355 -0.000459375 -0.00114446 0.00188375
internal_weight=0 16792 40965 15681 4277 9622 31343 27055 11404 7205 4288
internal_count=57757 16792 40965 15681 4277 9622 31343 27055 11404 7205 4288
is_linear=0
shrinkage=0.0416667


Tree=11
num_leaves=13
num_cat=0
split_feature=15 15 31 5 17 5 15 18 21 17 17 51
split_gain=15.366 32.4349 11.4437 19.3968 10.0461 12.3894 8.49125 9.25679 7.29096 3.59082 3.33816 2.37003
threshold=1.0000000180025095e-35 -1.1969271302223203 0.14318867772817614 0.14226979017257693 0.12754881381988528 -0.40254376828670496 0.47932702302932745 -0.47999179363250727 0.4874196350574494 -0.18208897113800046 -0.47451174259185785 0.28697894513607031
decision_type=2 2 2 2 2 2 2 2 2 2 2 2
left_child=1 4 8 -4 5 -1 9 -8 -3 10 -2 -11
right_child=6 2 3 -5 -6 -7 7 -9 -10 11 -12 -13
leaf_value=-0.009785212039090942 -0.0022626713540887704 0.00013189673682687767 -0.0049276193595502032 0.0016491965518737829 -0.0021288552515825888 -0.003071475025212858 -0.0010236525859499326 0.0018670583974616608 0.0033983807556568278 0.00096983350644858784 0.00046611348907957213 -0.00072795070799707904
leaf_weight=1458 3374 13734 2788 1875 2269 1300 3384 15247 1951 5368 1678 3331
leaf_count=1458 3374 13734 2788 1875 2269 1300 3384 15247 1951 5368 1678 3331
internal_value=0 -0.000996823 -0.000108291 -0.00228302 -0.00459332 -0.00662074 0.000646405 0.001342 0.000538219 -0.000296022 -0.00135627 0.000319693
internal_weight=0 25375 20348 4663 5027 2758 32382 18631 15685 13751 5052 8699
internal_count=57757 25375 20348 4663 5027 2758 32382 18631 15685 13751 5052 8699
is_linear=0
shrinkage=0.05


Tree=12
num_leaves=9
num_cat=0
split_feature=1 47 37 30 30 27 17 30
split_gain=7.5732 8.285 6.6339 9.32687 6.38044 2.84825 2.21625 1.02993
threshold=-0.43151545524597162 0.13479824364185336 0.18145812302827838 0.36346426606178289 0.29302181303501135 -0.1827876269817352 -0.28156670928001398 0.26272918283939367
decision_type=2 2 2 2 2 2 2 2
left_child=6 5 4 -4 -3 7 -1 -2
right_child=1 2 3 -5 -6 -7 -8 -9
leaf_value=-0.013759247830292066 0.0034318436752261532 0.015350565390597839 -0.021370515070462094 0.0083998852183467254 0.00090269130007857186 -0.00313826307251507 -0.0037215416115525136 -3.9567840833040824e-05
leaf_weight=2759 9183 6149 1160 1739 3011 16000 3077 14692
leaf_count=2759 9183 6149 1160 1739 3011 16000 3077 14692
internal_value=0 0.00130256 0.00720852 -0.00351194 0.0106015 -0.000483484 -0.00846714 0.00129558
internal_weight=0 51934 12059 2899 9160 39875 5836 23875
internal_count=57770 51934 12059 2899 9160 39875 5836 23875
is_linear=0
shrinkage=0.257143


Tree=13
num_leaves=8
num_cat=0
split_feature=15 5 52 54 5 37 41
split_gain=16.402 29.7255 4.1938 2.50698 3.01516 2.24373 1.00128
threshold=-0.28675650060176844 -1.1853687167167661 -0.31790611147880549 -0.11310993880033492 -0.69896259903907765 -0.36123520135879511 -0.47632792592048639
decision_type=2 2 2 2 2 2 2
left_child=1 -1 -3 4 -2 -5 -7
right_child=3 2 -4 5 -6 6 -8
leaf_value=-0.0057392040900063786 -0.00038139467315768315 -0.0013841958711338486 0.00027194531738404255 -0.000502509290628238 0.002080945354324727 0.00084962702362459332 0.00032089270128918057
leaf_weight=2262 1265 4612 7181 5125 3285 8913 25127
leaf_count=2262 1265 4612 7181 5125 3285 8913 25127
internal_value=0 -0.00123893 -0.000375719 0.000444101 0.00139631 0.000333472 0.000459342
internal_weight=0 14055 11793 43715 4550 39165 34040
internal_count=57770 14055 11793 43715 4550 39165 34040
is_linear=0
shrinkage=0.0428571


Tree=14
num_leaves=7
num_cat=0
split_feature=15 5 5 47 47 5
split_gain=7.26021 4.88972 2.62375 1.86503 1.89842 1.62934
threshold=-0.65754324197769154 0.55673396587371837 1.1768063306808474 -0.83268970251083363 -0.34019543230533594 -0.74225223064422596
decision_type=2 2 2 2 2 2
left_child=1 5 -3 -2 -5 -1
right_child=3 2 -4 4 -6 -7
leaf_value=-0.016788902726332145 -0.0040108137858873225 0.013881977027610492 -0.0053306606480533264 -0.00060381920352127385 0.0036382041697161274 -0.007299499453442649
leaf_weight=3165 4656 1188 1386 13856 30163 3356
leaf_count=3165 4656 1188 1386 13856 30163 3356
internal_value=0 -0.00753513 0.00353613 0.00169893 0.00230289 -0.0119055
internal_weight=0 9095 2574 48675 44019 6521
internal_count=57770 9095 2574 48675 44019 6521
is_linear=0
shrinkage=0.3


Tree=15
num_leaves=5
num_cat=0
split_feature=33 9 17 25
split_gain=10.9577 9.91238 6.79911 1.20819
threshold=-0.062886185944080339 0.25259573757648474 -1.0000000180025095e-35 0.50732821226120006
decision_type=2 2 2 2
left_child=1 -1 3 -2
right_child=2 -3 -4 -5
leaf_value=0.0039110415999530149 -0.009217634435816793 0.029252319003881186 0.00038849451860684244 -0.0023634374519187311
leaf_weight=18811 11886 1500 22698 2875
leaf_count=18811 11886 1500 22698 2875
internal_value=0 0.00578261 -0.00287081 -0.00788274
internal_weight=0 20311 37459 14761
internal_count=57770 20311 37459 14761
is_linear=0
shrinkage=0.3


Tree=16
num_leaves=11
num_cat=0
split_feature=6 2 18 18 21 7 38 21 30 38
split_gain=4.36592 12.9189 8.65706 22.6818 10.2078 6.48693 5.67383 3.73375 2.07908 2.07901
threshold=1.0000000180025095e-35 -0.63499644398689259 -0.85930177569389332 2.1524894237518315 -0.61264166235923756 -0.044990815222263329 0.56875786185264599 0.29528062045574194 0.42326906323432928 0.038234541192650802
decision_type=2 2 2 2 2 2 2 2 2 2
left_child=1 6 7 4 -4 8 9 -2 -3 -1
right_child=2 5 3 -5 -6 -7 -8 -9 -10 -11
leaf_value=-0.026803766917158776 -0.021060567848529121 0.011087310661843387 0.010582196840537161 0.043929113732257559 -0.0049472460305797425 -0.00097245524136935798 0.002381927118564896 -0.00091468723846867836 0.0032219037578978507 -0.010123758588772539
leaf_weight=1625 2728 13205 4823 1025 18127 8206 1635 1189 3924 1148
leaf_count=1625 2728 13205 4823 1025 18127 8206 1635 1189 3924 1148
internal_value=0 0.00335492 -0.00186986 0.000266384 -0.00168363 0.00596293 -0.0116342 -0.0149457 0.00928555 -0.0198989
internal_weight=0 29743 27892 23975 22950 25335 4408 3917 17129 2773
internal_count=57635 29743 27892 23975 22950 25335 4408 3917 17129 2773
is_linear=0
shrinkage=0.3


Tree=17
num_leaves=10
num_cat=0
split_feature=27 0 46 7 18 7 32 33 6
split_gain=8.80714 10.7526 12.3914 5.76575 6.05757 5.2575 9.18347 2.88104 2.69188
threshold=0.22379942238330844 -0.17533162981271741 -0.16282752901315686 -0.1252220347523689 -1.0000000180025095e-35 -0.074413001537322984 -0.96175259351730336 -0.09473922103643416 1.0221073627471926
decision_type=2 2 2 2 2 2 2 2 2
left_child=1 2 -1 4 -2 6 -3 -5 -4
right_child=3 5 8 7 -6 -7 -8 -9 -10
leaf_value=0.023557549486500743 -0.038755813124288448 0.037138337052073096 -0.0018036044872956126 0.0050007771019972532 -0.0064284494051521333 0.0032003014076906464 0.0090514549539808236 -0.0095621083877049807 -0.010211179495630463
leaf_weight=1679 1039 1226 25241 2020 1048 11112 7207 3097 3966
leaf_count=1679 1039 1226 25241 2020 1048 11112 7207 3097 3966
internal_value=0 0.00198012 -0.00150454 -0.00923349 -0.0225231 0.00748683 0.0131349 -0.00381293 -0.00294532
internal_weight=0 50431 30886 7204 2087 19545 8433 5117 29207
internal_count=57635 50431 30886 7204 2087 19545 8433 5117 29207
is_linear=0
shrinkage=0.3


Tree=18
num_leaves=10
num_cat=0
split_feature=15 31 31 31 5 32 29 30 18
split_gain=5.64733 4.91031 4.10196 3.42301 6.14119 5.57939 3.11101 3.02765 1.16061
threshold=0.68842169642448436 -1.0000000180025095e-35 0.14318867772817614 0.077072750777006163 1.0000000180025095e-35 0.13267251849174502 -1.0000000180025095e-35 0.55309945344924938 -0.16491081565618512
decision_type=2 2 2 2 2 2 2 2 2
left_child=3 -2 -3 5 -5 7 -7 -1 -6
right_child=1 2 -4 4 8 6 -8 -9 -10
leaf_value=0.0049425579233301114 0.021525652335716468 -0.00040600517909886803 0.012862637316712033 -0.010324731406332289 0.0060675361223333927 -0.011676304082561725 -0.001227835878677807 -0.0099422923553585899 -0.0019529159888049129
leaf_weight=17817 1653 6569 3080 8170 3229 3598 8932 1321 3266
leaf_count=17817 1653 6569 3080 8170 3229 3598 8932 1321 3266
internal_value=0 0.00641761 0.00382924 -0.00106172 -0.00485095 0.000692968 -0.00422824 0.00391505 0.00203423
internal_weight=0 11302 9649 46333 14665 31668 12530 19138 6495
internal_count=57635 11302 9649 46333 14665 31668 12530 19138 6495
is_linear=0
shrinkage=0.3


Tree=19
num_leaves=8
num_cat=0
split_feature=31 33 5 0 8 5 8
split_gain=5.39533 6.3067 14.81 8.5913 5.76481 1.68777 1.04507
threshold=-0.17462699115276334 0.17703168839216235 -1.2355579137802122 -0.47990934550762171 0.45232434570789343 -1.0440673828124998 -0.24176003038883206
decision_type=2 2 2 2 2 2 2
left_child=4 2 -2 -4 6 -3 -1
right_child=1 5 3 -5 -6 -7 -8
leaf_value=0.017152978123209928 -0.017602348629474261 0.0017317989375453353 -0.0067514861831331615 0.0044924550630872431 -0.010861917213815747 -0.01021677765034334 0.0073260101984074536
leaf_weight=2992 3629 1260 7511 32927 1040 6831 1445
leaf_count=2992 3629 1260 7511 32927 1040 6831 1445
internal_value=0 -0.000657138 0.000756365 0.00240396 0.00924072 -0.00835586 0.013953
internal_weight=0 52158 44067 40438 5477 8091 4437
internal_count=57635 52158 44067 40438 5477 8091 4437
is_linear=0
shrinkage=0.3


end of trees

feature_importances:
Column_15=16
Column_5=15
Column_17=12
Column_30=12
Column_31=10
Column_3=8
Column_0=6
Column_2=6
Column_7=6
Column_21=6
Column_38=6
Column_1=5
Column_18=5
Column_27=5
Column_33=5
Column_12=4
Column_8=3
Column_9=3
Column_13=3
Column_24=3
Column_29=3
Column_39=3
Column_47=3
Column_66=3
Column_6=2
Column_32=2
Column_34=2
Column_37=2
Column_41=2
Column_51=2
Column_53=2
Column_54=2
Column_56=2
Column_59=2
Column_14=1
Column_16=1
Column_19=1
Column_20=1
Column_25=1
Column_28=1
Column_36=1
Column_45=1
Column_46=1
Column_48=1
Column_52=1
Column_63=1
Column_64=1
Column_65=1
Column_67=1

parameters:
[boosting: dart]
[objective: regression]
[metric: l1,huber]
[tree_learner: serial]
[device_type: cpu]
[data_sample_strategy: bagging]
[data: ]
[valid: ]
[num_iterations: 20]
[learning_rate: 0.3]
[num_leaves: 15]
[num_threads: 12]
[seed: 0]
[deterministic: 0]
[force_col_wise: 0]
[force_row_wise: 0]
[histogram_pool_size: -1]
[max_depth: 4]
[min_data_in_leaf: 1000]
[min_sum_hessian_in_leaf: 0.001]
[bagging_fraction: 0.9]
[pos_bagging_fraction: 1]
[neg_bagging_fraction: 1]
[bagging_freq: 4]
[bagging_seed: 3]
[feature_fraction: 0.45]
[feature_fraction_bynode: 1]
[feature_fraction_seed: 2]
[extra_trees: 1]
[extra_seed: 6]
[early_stopping_round: 0]
[early_stopping_min_delta: 0]
[first_metric_only: 0]
[max_delta_step: 0]
[lambda_l1: 0.005]
[lambda_l2: 0]
[linear_lambda: 0]
[min_gain_to_split: 0.67]
[drop_rate: 0.45]
[max_drop: 30]
[skip_drop: 0.65]
[xgboost_dart_mode: 0]
[uniform_drop: 0]
[drop_seed: 4]
[top_rate: 0.2]
[other_rate: 0.1]
[min_data_per_group: 100]
[max_cat_threshold: 32]
[cat_l2: 10]
[cat_smooth: 10]
[max_cat_to_onehot: 4]
[top_k: 20]
[monotone_constraints: ]
[monotone_constraints_method: basic]
[monotone_penalty: 0]
[feature_contri: ]
[forcedsplits_filename: ]
[refit_decay_rate: 0.9]
[cegb_tradeoff: 1]
[cegb_penalty_split: 0]
[cegb_penalty_feature_lazy: ]
[cegb_penalty_feature_coupled: ]
[path_smooth: 0]
[interaction_constraints: ]
[verbosity: 1]
[saved_feature_importance_type: 0]
[use_quantized_grad: 0]
[num_grad_quant_bins: 4]
[quant_train_renew_leaf: 0]
[stochastic_rounding: 1]
[linear_tree: 0]
[max_bin: 65]
[max_bin_by_feature: ]
[min_data_in_bin: 3]
[bin_construct_sample_cnt: 200000]
[data_random_seed: 1]
[is_enable_sparse: 1]
[enable_bundle: 1]
[use_missing: 1]
[zero_as_missing: 0]
[feature_pre_filter: 1]
[pre_partition: 0]
[two_round: 0]
[header: 0]
[label_column: ]
[weight_column: ]
[group_column: ]
[ignore_column: ]
[categorical_feature: ]
[forcedbins_filename: ]
[precise_float_parser: 0]
[parser_config_file: ]
[objective_seed: 5]
[num_class: 1]
[is_unbalance: 0]
[scale_pos_weight: 1]
[sigmoid: 1]
[boost_from_average: 1]
[reg_sqrt: 0]
[alpha: 0.9]
[fair_c: 1]
[poisson_max_delta_step: 0.7]
[tweedie_variance_power: 1.5]
[lambdarank_truncation_level: 30]
[lambdarank_norm: 1]
[label_gain: ]
[lambdarank_position_bias_regularization: 0]
[eval_at: ]
[multi_error_top_k: 1]
[auc_mu_weights: ]
[num_machines: 1]
[local_listen_port: 12400]
[time_out: 120]
[machine_list_filename: ]
[machines: ]
[gpu_platform_id: -1]
[gpu_device_id: -1]
[gpu_use_dp: 0]
[num_gpu: 1]

end of parameters

pandas_categorical:null
