tree
version=v4
num_class=1
num_tree_per_iteration=1
label_index=0
max_feature_idx=64
objective=regression
feature_names=Column_0 Column_1 Column_2 Column_3 Column_4 Column_5 Column_6 Column_7 Column_8 Column_9 Column_10 Column_11 Column_12 Column_13 Column_14 Column_15 Column_16 Column_17 Column_18 Column_19 Column_20 Column_21 Column_22 Column_23 Column_24 Column_25 Column_26 Column_27 Column_28 Column_29 Column_30 Column_31 Column_32 Column_33 Column_34 Column_35 Column_36 Column_37 Column_38 Column_39 Column_40 Column_41 Column_42 Column_43 Column_44 Column_45 Column_46 Column_47 Column_48 Column_49 Column_50 Column_51 Column_52 Column_53 Column_54 Column_55 Column_56 Column_57 Column_58 Column_59 Column_60 Column_61 Column_62 Column_63 Column_64
feature_infos=[-0.69548743963241577:3] [-0.69408005475997925:3] [-0.68643885850906372:3] [-0.69548749923706055:3] [-0.87918812036514282:3] [-0.84843325614929199:3] [-3:3] [-3:1.1245055198669434] [-0.69408005475997925:3] [-0.20123764872550964:3] [-0.42782634496688843:3] [-0.68754398822784424:3] [-0.69113439321517944:3] [-0.6808897852897644:3] [-0.69113433361053467:3] [-3:0.69408005475997925] [-0.89345294237136841:3] [-3:0.85646319389343262] [-3:0.47022032737731934] [-0.4869854748249054:3] [-0.57128608226776123:3] [-3:3] [-0.19836880266666412:3] [-0.89289957284927368:3] [-0.69512003660202026:3] [-3:0.69407999515533447] none [-0.69340008497238159:3] [-0.68873757123947144:3] [-0.69525641202926636:3] [-3:0.84530526399612427] [-3:0.68767577409744263] [-3:0.48821660876274109] [-0.69525641202926636:3] [-0.7453538179397583:3] [-0.69548743963241577:3] [-0.18673202395439148:3] [-3:0.69113427400588989] [-1.3708870410919189:3] [-3:0.69113439321517944] [-0.24714361131191254:3] [-3:0.66770118474960327] [-0.69525641202926636:3] [-3:0.69113427400588989] [-2.8879234790802002:3] [-3:3] [-3:3] [-0.13791929185390472:3] [-3:0.7000880241394043] [-0.8922271728515625:3] [-0.66718208789825439:3] [-0.11345850676298141:3] [-0.74159401655197144:3] [-0.69007742404937744:3] [-0.69117975234985352:3] [-3:3] [-0.69525641202926636:3] [-0.69340008497238159:3] none [-3:3] [-0.95683693885803223:3] [-0.82198631763458252:3] [-3:0.97303599119186401] [-0.54291218519210815:3] [-0.68834900856018066:3]
tree_sizes=2976 2862 2962 2863 2994 2958 2953 2976 2888 2883 2871 2920 2949 2960 2893 2923 2823 2960 2963 2946 2979 2856 2888 2881 2901 2874 2807 2861 2857 2947 2872 2895 2947 2824 2874 2922 2892 2804 2900 2869 2900 2879 2934 2822 2991 2872 2942 2952 2912 2976 2970 2951 2889 2936 2896 2889 2930 2863 2834 2951 2955 2910 2841 2934 2861 2937 2883 2960 2845 2969 2898 2865 2962 2884 2967 2774 2787 2881 2844 2805 3001 2904 2998 2899 3034 2860 2880 2868 2961 2868 2934 2906 2825 2859 2849 2802 2913 2826 2873 2917

Tree=0
num_leaves=31
num_cat=0
split_feature=15 6 22 9 2 63 27 36 61 5 51 6 2 36 61 20 5 23 40 9 62 16 30 53 16 24 7 6 17 5
split_gain=358.029 258.985 252.537 293.073 401.265 152.137 260.784 199.373 1016.79 142.762 142.451 222.576 446.112 119.222 112.442 111.433 110.544 106.311 95.3109 114.331 93.2576 87.771 82.4049 82.3908 74.6077 68.3519 61.3447 51.0441 73.567 50.3801
threshold=-0.94501954317092884 0.2388260290026665 -0.1274948567152023 -0.048558674752712243 -0.3615919947624206 -0.090786203742027269 -0.53530392050743092 -1.0000000180025095e-35 1.6403635144233706 0.22024153918027881 -0.082363341003656373 0.82553920149803173 -0.289089486002922 -0.11376612260937689 0.28934727609157568 -0.27352420985698694 -0.52229520678520192 0.91298329830169689 1.9979031682014468 -0.092475008219480501 -0.15840927511453626 0.31923343241214758 -1.6842811703681944 0.2163089141249657 0.99096935987472545 2.9656773805618291 -0.76500642299652089 0.16404864192008975 -2.9988555908203121 0.086623623967170729
decision_type=2 2 2 2 2 2 2 2 2 2 2 2 2 2 2 2 2 2 2 2 2 2 2 2 2 2 2 2 2 2
left_child=9 5 3 22 -5 7 -7 13 -9 25 21 24 -13 16 26 -15 -2 -16 20 -20 -8 -4 -3 -23 -12 -1 -11 29 -29 -27
right_child=1 2 10 4 -6 6 18 8 -10 14 11 12 -14 15 17 -17 -18 -19 19 -21 -22 23 -24 -25 -26 27 -28 28 -30 -31
leaf_value=-0.005105160131668938 -0.0076184465347548212 -0.021240572442804626 -0.0059172655508031805 -0.1531678501827145 -0.012947138375826058 -0.074076283107242014 -0.012664383775139031 -0.002080805527678053 0.12927929437919305 -0.020191156042855318 5.0343926348388807e-05 0.14315755412252434 0.0095568046580398677 0.0042904320738350217 0.072008094680724818 0.0012519469457577201 0.00048094646344800848 9.0582528435202505e-05 0.058518830871088445 9.0582528435202505e-05 -0.0007154882772204003 -0.002054944089759452 -0.0060601484411596587 -0.055765704190826632 -0.012809797162949638 -0.0026382813551137693 -0.0096691500483345304 -0.0027900403567252701 0.029695312694560036 0.04259855482745635
leaf_weight=2601 1573 330 1390 27 56 40 558 210 61 863 5861 21 1390 18629 21 21571 10648 94 48 59 14750 55 4604 61 396 415 1293 76 134 21
leaf_count=2601 1573 330 1390 27 56 40 558 210 61 863 5861 21 1390 18629 21 21571 10648 94 48 59 14750 55 4604 61 396 415 1293 76 134 21
internal_value=9.05825e-05 0.000578555 -0.00292767 -0.00808284 -0.0617222 0.00131247 -0.0011701 0.00204551 0.026557 -0.00693903 -8.03983e-05 0.00146876 0.0117324 0.00191386 -0.0124718 0.00266641 -0.000540536 0.0139467 -0.000963993 0.0257904 -0.00116788 -0.00813865 -0.00712778 -0.0325271 -0.000804756 -0.00298999 -0.0140005 0.00512808 0.0167166 9.05825e-05
internal_weight=0 82338 14191 5017 83 68147 15455 52692 271 5518 9174 7668 1411 52421 2271 40200 12221 115 15415 107 15308 1506 4934 116 6257 3247 2156 646 210 436
internal_count=87856 82338 14191 5017 83 68147 15455 52692 271 5518 9174 7668 1411 52421 2271 40200 12221 115 15415 107 15308 1506 4934 116 6257 3247 2156 646 210 436
is_linear=0
shrinkage=0.285714


Tree=1
num_leaves=31
num_cat=0
split_feature=15 6 22 34 62 61 63 49 63 30 10 36 61 40 5 9 51 36 34 34 61 4 18 30 10 18 24 7 7 50
split_gain=290.049 210.954 204.951 328.284 125.78 585.901 124.76 149.571 124.468 229.549 303.99 154.126 831.25 117.306 116.017 104.012 97.4171 96.934 121.667 109.859 90.9779 93.0684 89.0877 89.044 88.6706 63.3153 55.3437 55.3175 54.5575 44.5891
threshold=-0.94501954317092884 0.2388260290026665 -0.1274948567152023 0.94070175290107738 -1.9649992585182188 -0.15225882083177564 2.3256249427795415 0.073584791272878661 -0.076205305755138383 -2.9546034336090083 -0.29639841616153711 -1.0000000180025095e-35 1.6403635144233706 1.9979031682014468 0.16923261433839801 -0.093363009393215166 -0.082363341003656373 -0.11376612260937689 -0.39603358507156367 -0.31466135382652277 0.28934727609157568 0.8826117515563966 -0.083167362958192811 -1.6842811703681944 -0.2567626535892486 -0.58632704615592945 2.9656773805618291 -2.9992727041244502 -0.76500642299652089 0.92868328094482433
decision_type=2 2 2 2 2 2 2 2 2 2 2 2 2 2 2 2 2 2 2 2 2 2 2 2 2 2 2 2 2 2
left_child=14 8 3 23 5 -4 16 -8 11 10 -10 17 -13 25 26 -15 -6 18 -2 -19 28 -22 -7 -3 -14 -11 -1 -25 -16 -23
right_child=1 2 4 -5 6 22 7 -9 9 13 -12 12 24 15 20 -17 -18 19 -20 -21 21 29 -24 27 -26 -27 -28 -29 -30 -31
leaf_value=-0.007116924584017123 -0.0046144389260091932 -0.033042822467471207 0.26417074946030644 -0.14988630474206965 -0.011648472836041368 0.084362484615871064 0 0.14596282293366128 -0.17525754499348506 0.0084372399515162694 0 -0.0026580653232793411 0.093149247856435385 0.10131329347226115 -0.028539145155426843 0 0.0007133430526437951 0.0058641895144433756 0.0043175631819349809 0.0012354000896876746 0.062745791124472261 0.023028231749333029 -0.020518043537369114 -0.042887093607101495 0.23856320111198009 -0.0026948516560057444 0.0073993334678768606 -0.0079144044869792155 -0.013343213380693497 -0.048907782074702977
leaf_weight=2526 7290 334 20 34 1503 20 21 25 35 1079 48 222 27 41 871 45 7506 20510 5107 20534 55 24 79 97 34 13175 628 4552 1378 36
leaf_count=2526 7290 334 20 34 1503 20 21 25 35 1079 48 222 27 41 871 45 7506 20510 5107 20534 55 24 79 97 34 13175 628 4552 1378 36
internal_value=0 0.000679167 -0.00424253 -0.011467 -0.000248028 0.0450747 -0.000888075 0.071928 0.00170994 -0.00193984 -0.075714 0.00269722 0.0355151 -0.00148468 -0.00984629 0.0500897 -0.00130467 0.00251591 -0.000902592 0.00355819 -0.0173439 0.019512 0 -0.0104408 0.180881 -0.00182409 -0.00409967 -0.00873059 -0.0194067 -0.013477
internal_weight=0 82338 14191 5017 9174 119 9055 46 68147 14423 83 53724 283 14340 5518 86 9009 53441 12397 41044 2364 115 99 4983 61 14254 3154 4649 2249 60
internal_count=87856 82338 14191 5017 9174 119 9055 46 68147 14423 83 53724 283 14340 5518 86 9009 53441 12397 41044 2364 115 99 4983 61 14254 3154 4649 2249 60
is_linear=0
shrinkage=0.0444444


Tree=2
num_leaves=31
num_cat=0
split_feature=15 6 22 34 6 2 51 63 27 36 4 5 51 41 23 36 5 34 4 10 27 16 7 17 7 9 16 24 6 17
split_gain=296.464 214.835 210.174 334.48 126.842 469.324 181.558 126.562 236.86 164.875 801.675 118.528 110.177 105.43 102.535 98.3677 108.269 102.156 93.8163 93.4686 85.2402 76.2667 68.7719 61.5393 59.5987 58.9705 58.5192 56.8568 59.9869 71.7255
threshold=-0.94501954317092884 0.2388260290026665 -0.1274948567152023 0.94070175290107738 0.82553920149803173 -0.289089486002922 -0.082363341003656373 -0.090786203742027269 -0.53530392050743092 -1.0000000180025095e-35 0.44650423526763922 0.40606118738651281 -0.067905660718679414 -0.046669092029333108 0.63810229301452648 -0.11376612260937689 -0.52229520678520192 -0.31466135382652277 0.8826117515563966 -0.30692838132381434 -0.26138456165790552 0.99096935987472545 -2.9992727041244502 0.5903107523918153 -2.9992727041244502 -0.098849724978208528 0.47925044596195226 2.9656773805618291 0.16404864192008975 -2.9988555908203121
decision_type=2 2 2 2 2 2 2 2 2 2 2 2 2 2 2 2 2 2 2 2 2 2 2 2 2 2 2 2 2 2
left_child=11 7 3 22 13 -6 -7 9 -9 15 -11 27 -12 26 24 16 -2 -17 23 20 -10 -15 -3 -16 -13 -24 -4 -1 -29 -30
right_child=1 2 4 -5 5 6 -8 8 19 10 12 14 -14 21 18 17 -18 -19 -20 -21 -22 -23 25 -25 -26 -27 -28 28 29 -31
leaf_value=-0.0077905714671273746 -0.011345375008820144 -0.038032544327286019 -0.0059616783567531164 -0.14588576500861433 0.21224624713396756 -0.025671043668563653 0.0138409504814428 -0.10593315530837444 -0.064032978472889315 -0.003046039155115953 0.26922566176395124 -0.048923496589667534 0.11410081599681524 0.0053240063216165355 0.092800955884182051 0.0056584834056066114 0.00068017965421416173 0.001305688294757729 -0.017222017872783841 -0.00092388745312802075 -0.0091601726993675026 -0.016447970964387829 -0.0051354618202754769 0.0033284104266321432 -0.01878266512606161 -0.015168691272985851 -0.032192311958228345 -0.0019052469150389923 -0.0050203933971772639 0.042614427296679955
leaf_weight=2958 1573 166 4065 34 21 247 1390 40 80 207 20 153 44 2958 34 20463 10648 19737 71 15120 215 322 2940 41 1506 1877 171 537 76 142
leaf_count=2958 1573 166 4065 34 21 247 1390 40 80 207 20 153 44 2958 34 20463 10648 19737 71 15120 215 322 2940 41 1506 1877 171 537 76 142
internal_value=0 0.000679688 -0.00410967 -0.0111641 -0.000209727 0.0104734 0.00764294 0.00168269 -0.00171237 0.00268581 0.0361315 -0.00958137 0.168772 -0.00261775 -0.0186712 0.00250551 -0.000836143 0.00353099 0.0141929 -0.00141656 -0.0253565 0.00306882 -0.010166 0.0490635 -0.0217963 -0.00912522 -0.00711199 -0.00505844 0.00513468 0.0242415
internal_weight=0 82338 14191 5017 9174 1658 1637 68147 15455 52692 271 5518 64 7516 1805 52421 12221 40200 146 15415 295 3280 4983 75 1659 4817 4236 3713 755 218
internal_count=87856 82338 14191 5017 9174 1658 1637 68147 15455 52692 271 5518 64 7516 1805 52421 12221 40200 146 15415 295 3280 4983 75 1659 4817 4236 3713 755 218
is_linear=0
shrinkage=0.0428571


Tree=3
num_leaves=31
num_cat=0
split_feature=15 6 22 34 63 10 30 36 61 62 61 63 49 5 51 5 40 9 51 61 23 30 62 11 10 2 38 40 24 21
split_gain=237.797 172.994 168.93 268.013 102.113 197.021 224.547 126.785 700.299 101.299 474.094 98.9294 123.416 96.0879 92.4249 195.529 88.2823 106.516 81.4259 78.6059 82.1708 78.0432 71.8332 61.3981 55.3974 51.8428 55.4022 82.5263 45.2691 44.4042
threshold=-0.94501954317092884 0.2388260290026665 -0.1274948567152023 0.94070175290107738 -0.076205305755138383 -0.30692838132381434 -2.9546034336090083 -1.0000000180025095e-35 1.6403635144233706 -1.9649992585182188 -0.15225882083177564 2.3256249427795415 0.073584791272878661 0.22024153918027881 -0.068721033632755266 -0.54241463541984547 1.9979031682014468 -0.092475008219480501 -0.082363341003656373 0.28934727609157568 0.91298329830169689 -1.6842811703681944 -2.932928085327148 -0.30118533968925471 -0.2567626535892486 0.97554185986518871 2.4065614938735966 -0.12658720463514325 2.9656773805618291 -0.042710086330771439
decision_type=2 2 2 2 2 2 2 2 2 2 2 2 2 2 2 2 2 2 2 2 2 2 2 2 2 2 2 2 2 2
left_child=13 4 3 21 7 6 -6 14 -9 10 -4 18 -13 28 22 -16 29 -18 -11 25 -21 -3 -2 -12 -10 -15 -27 -28 -1 -7
right_child=1 2 9 -5 5 16 -8 8 24 11 23 12 -14 19 15 -17 17 -19 -20 20 -22 -23 -24 -25 -26 26 27 -29 -30 -31
leaf_value=-0.0092611584919737311 -0.019967898160263738 -0.043416962380619074 0.33672442555130278 -0.19214350646497105 -0.21475501270450414 -0.023639322472517512 -0.031826861660088961 -0.0037863593121482651 0.12556708160477956 -0.015051231228183148 -0.024193227848274889 0 0.18628962258021989 -0.052060401667729732 -0.01333256773468487 0.002693476469425542 0.13383294593635842 0 0.00096610596680816411 0.13820955296876597 0 -0.011129191966788569 0.0061025562075715219 0.099228949213117132 0.30465111968275743 -0.010805056921451723 -0.01900203124305009 -0.064709335066439957 0.0090437168471066733 -0.0012160195387940715
leaf_weight=2601 416 334 20 34 32 364 253 222 27 1503 79 21 25 283 3512 21540 42 51 7506 21 94 4649 27973 20 34 1053 567 253 646 13681
leaf_count=2601 416 334 20 34 32 364 253 222 27 1503 79 21 25 283 3512 21540 42 51 7506 21 94 4649 27973 20 34 1053 567 253 646 13681
internal_value=0 0.000880164 -0.00543641 -0.0147338 0.00220386 -0.00247994 -0.0543894 0.00347185 0.0456781 -0.000290093 0.0573573 -0.00111062 0.0907794 -0.012629 0.00323769 0.000424156 -0.00139323 0.0595892 -0.00164325 -0.022651 0.0256948 -0.0134076 0.00570052 0 0.23484 -0.0254933 -0.0211751 -0.0337989 -0.00544465 -0.00183761
internal_weight=0 82338 14191 5017 68147 14423 285 53724 283 9174 119 9055 46 5518 53441 25052 14138 93 9009 2271 115 4983 28389 99 61 2156 1873 820 3247 14045
internal_count=87856 82338 14191 5017 68147 14423 285 53724 283 9174 119 9055 46 5518 53441 25052 14138 93 9009 2271 115 4983 28389 99 61 2156 1873 820 3247 14045
is_linear=0
shrinkage=0.063


Tree=4
num_leaves=31
num_cat=0
split_feature=22 6 22 34 6 2 40 16 62 63 27 5 9 6 18 38 30 38 5 61 38 61 63 9 50 40 38 62 16 2
split_gain=191.772 149.036 134.569 222.306 96.8743 317.834 116.298 76.9021 331.513 75.3319 172.402 77.5329 108.153 137.678 71.8223 157.096 63.7352 61.2928 58.0418 73.7463 65.4149 71.2324 49.9131 138.987 106.149 48.2197 60.8917 43.3283 42.5462 41.493
threshold=0.088315997272729888 0.2388260290026665 -0.13693583011627194 0.94070175290107738 0.82553920149803173 -0.289089486002922 0.052423791959881789 0.99096935987472545 -1.9649992585182188 -0.090786203742027269 -0.53530392050743092 -0.50509384274482716 -0.11009917035698889 -0.044311897829174988 -0.36148658394813532 -0.36775235831737513 -1.6842811703681944 -1.0809454321861265 0.40606118738651281 0.28934727609157568 2.0118032693862919 0.36239035427570349 -0.30780649185180659 -0.10871250182390212 -0.51313066482543934 -0.13622587919235227 2.4065614938735966 0.4638523161411286 0.82659238576889049 0.97554185986518871
decision_type=2 2 2 2 2 2 2 2 2 2 2 2 2 2 2 2 2 2 2 2 2 2 2 2 2 2 2 2 2 2
left_child=1 9 3 16 7 -6 -7 8 -4 11 -11 12 -1 -14 15 -12 -3 -16 27 25 21 -21 23 -13 -24 -20 29 -2 -23 -27
right_child=18 2 4 -5 5 6 -8 -9 -10 10 14 22 13 -15 17 -17 -18 -19 19 20 -22 28 24 -25 -26 26 -28 -29 -30 -31
leaf_value=-0.005238492081814922 -0.010088432851842263 -0.01555426486372927 0.065456064536241393 -0.06498441907433411 0.085069430001092086 0.00083155793103072422 0.019344063772136315 -0.0093132317666581206 -0.0011117419646487572 -0.046753011607713682 0.017961574528379275 0.00045887719882223228 -0.003906000638004929 0.0032654862386518367 -0.023025317180595507 0.00010537680077142973 -0.0038993848712834123 -0.00091508854380384103 -0.003552295004323143 0.056997469546680536 -0.006644545731768957 0.024953870698396469 -0.0043380113148139415 0.0047547167240328007 0.0012831073632205295 -0.013058868368225195 -0.01911026266200725 -0.0014383011951514615 -0.015398441110168609 -0.0020069907617487302
leaf_weight=2089 322 263 37 31 24 1404 195 566 7748 40 318 7869 2057 3659 63 1135 3692 13407 853 23 53 27 1750 7252 27965 340 347 3873 20 434
leaf_count=2089 322 263 37 31 24 1404 195 566 7748 40 318 7869 2057 3659 63 1135 3692 13407 853 23 53 27 1750 7252 27965 340 347 3873 20 434
internal_value=0 0.000296853 -0.00178939 -0.0052448 -0.000388399 0.00455102 0.00321479 -0.00137234 -0.000769255 0.000730615 -0.000652311 0.00112751 -0.000900665 0.000649704 -0.000515183 0.00415147 -0.00472517 -0.00103343 -0.00372952 -0.00679371 0.00916345 0.0239837 0.00148503 0.00253239 0.000945327 -0.00788952 -0.0110111 -0.00215006 0.00353376 -0.00712073
internal_weight=0 81564 13960 3986 9974 1623 1599 8351 7785 67604 14963 52641 7805 5716 14923 1453 3955 13470 6292 2097 123 70 44836 15121 29715 1974 1121 4195 47 774
internal_count=87856 81564 13960 3986 9974 1623 1599 8351 7785 67604 14963 52641 7805 5716 14923 1453 3955 13470 6292 2097 123 70 44836 15121 29715 1974 1121 4195 47 774
is_linear=0
shrinkage=0.0222222


Tree=5
num_leaves=31
num_cat=0
split_feature=15 6 22 9 2 2 38 49 6 2 49 5 63 22 10 30 17 5 51 44 9 40 23 44 61 12 10 63 61 6
split_gain=171.178 126.87 106.329 242.054 197.154 138.653 310.952 95.0391 89.1511 221.123 115.741 74.546 72.4908 255.5 81.8822 153.137 70.5118 80.9692 72.7678 72.153 45.6418 41.266 39.1043 75.4168 55.1725 38.632 37.429 39.1743 34.1806 32.5655
threshold=-0.94501954317092884 0.18909720331430438 -0.14181007444858548 -0.048558674752712243 -0.3615919947624206 -0.46008799970149988 -0.61927565932273854 1.0000000180025095e-35 0.82553920149803173 -0.289089486002922 0.84763115644454967 -0.026952821761369702 -0.10426272451877593 -0.17909070849418637 -0.28211922943592066 -0.66249924898147572 -0.26428581774234766 -0.4915433377027511 -0.072165984660387025 0.57171979546546947 -0.073503833264112459 1.9979031682014468 0.63810229301452648 -0.35524377226829523 -0.35721366107463831 1.1656902432441714 -0.24615078419446942 0.047064324840903289 -0.41893514990806574 -0.75554573535919178
decision_type=2 2 2 2 2 2 2 2 2 2 2 2 2 2 2 2 2 2 2 2 2 2 2 2 2 2 2 2 2 2
left_child=11 12 3 26 -5 6 -4 -8 10 -10 -7 25 16 -14 15 -15 20 18 -18 -19 -2 -16 24 -24 28 -1 -3 -28 -13 -30
right_child=1 2 5 4 -6 8 7 -9 9 -11 -12 22 13 14 21 -17 17 19 -20 -21 -22 -23 23 -25 -26 -27 27 -29 29 -31
leaf_value=-0.00525884091532129 0.0068874136378501141 -0.0055588358516605041 0.10699388759322186 -0.10689315480142546 0 -0.00098200816294657912 0.018828298599280348 0.001193403760100429 0.073200984026037683 0.0031182524554239513 -0.010906172155101524 -0.0069690495329069353 -0.08575837452665748 -0.042749172960013106 -0.00021624033932178226 -0.0044427845514051446 0.002420521377744182 0.00085760961409703717 -0.0031165767040436821 0.0034382001794796445 0 0.015207365255782375 0.045627863299326193 -0.001454318367892125 -0.015701203757020134 0.0012099486319369001 -0.00098755020983282019 -0.013517526933398341 0.015061268089462173 -0.0033869979935600126
leaf_weight=875 2213 3233 20 26 22 10602 282 691 29 1633 798 2162 22 75 14572 699 2096 26803 4838 9246 836 109 24 125 476 1602 3236 169 87 159
leaf_count=875 2213 3233 20 26 22 10602 282 691 29 1633 798 2162 22 75 14572 699 2096 26803 4838 9246 836 109 24 125 476 1602 3236 169 87 159
internal_value=0 0.000242288 -0.00144466 -0.00404169 -0.060251 -0.000193224 0.00879155 0.00653638 -0.000893521 0.00447866 -0.00169648 -0.00430894 0.000814789 -0.000655663 -0.000519685 -0.00844784 0.00131408 0.00104685 -0.00141038 0.00152574 0.00500744 -8.63495e-05 -0.00694981 0.00463259 -0.00762629 -0.000984377 -0.00360089 -0.00167572 -0.00593636 0.00222468
internal_weight=0 82250 20741 6686 48 14055 993 973 13062 1662 11400 5510 61509 15477 15455 774 46032 42983 6934 36049 3049 14681 3033 149 2884 2477 6638 3405 2408 246
internal_count=87760 82250 20741 6686 48 14055 993 973 13062 1662 11400 5510 61509 15477 15455 774 46032 42983 6934 36049 3049 14681 3033 149 2884 2477 6638 3405 2408 246
is_linear=0
shrinkage=0.025


Tree=6
num_leaves=31
num_cat=0
split_feature=15 6 22 9 2 63 49 63 22 36 61 10 30 17 51 10 6 30 41 63 16 7 40 49 60 41 7 19 61 4
split_gain=218.319 156.41 113.35 244.988 243.42 100.558 124.082 80.7667 285.848 111.941 671.948 80.6849 160.605 74.0206 73.9251 69.5488 64.6552 64.2217 61.3481 142.547 81.2212 59.7119 55.3605 45.723 40.5564 36.3703 36.2421 49.4136 39.1422 29.2766
threshold=-0.94501954317092884 0.22819068282842639 -0.13693583011627194 -0.048558674752712243 -0.3615919947624206 2.3256249427795415 0.073584791272878661 -0.10426272451877593 -0.17909070849418637 -1.0000000180025095e-35 1.6403635144233706 -0.28211922943592066 -2.9546034336090083 1.0000000180025095e-35 -0.068721033632755266 -0.2567626535892486 -0.12206687405705451 0.44532226026058203 -0.046669092029333108 0.30166184902191168 0.31923343241214758 -2.9992727041244502 1.9979031682014468 0.59251540899276745 0.18834517151117328 0.14070447534322741 -0.76500642299652089 -0.32239371538162226 1.0000000180025095e-35 -0.21763597428798673
decision_type=2 2 2 2 2 2 2 2 2 2 2 2 2 2 2 2 2 2 2 2 2 2 2 2 2 2 2 2 2 2
left_child=13 7 3 21 -5 18 -7 9 -9 14 29 12 -10 24 17 -12 -16 -2 20 -20 -4 -3 -13 -15 26 -23 27 28 -1 -11
right_child=1 2 5 4 -6 6 -8 8 11 10 15 22 -14 23 16 -17 -18 -19 19 -21 -22 25 -24 -25 -26 -27 -28 -29 -30 -31
leaf_value=-0.0077486650124944283 0.0021678907167427706 -0.026825027541434343 -0.0018103160634731406 -0.13282389222851032 -0.002389656180606868 0 0.088396391714519698 -0.10585660223292295 -0.075567918425571853 -0.013063242232404189 0.048876287543742111 -0.00035951205142785176 -0.0066963429185196086 -0.019101797091895811 -0.00347649639829064 0.14212591080355166 0.00085928031284221928 0.009345510821758966 0.00029983012032949871 0.02260131249508367 -0.014711884530993749 -0.022799526662669978 0.019668606562495493 0.0054659115425356722 0.027031624130807813 -0.0042365260273181738 -0.0036742617282899434 -0.02420865662919202 0.031117311539460246 0.0085740169180960838
leaf_weight=434 25016 112 5299 26 31 20 24 22 31 118 22 15327 777 487 3398 34 20706 1135 4658 259 461 99 118 56 32 4472 4288 192 21 85
leaf_count=434 25016 112 5299 26 31 20 24 22 31 118 22 15327 777 487 3398 34 20706 1135 4658 259 461 99 118 56 32 4472 4288 192 21 85
internal_value=0 0.000326283 -0.00231235 -0.00607467 -0.0665515 -0.000624431 0.0432423 0.000941031 -0.000835469 0.0015186 0.0207169 -0.000676836 -0.00966806 -0.00567033 0.00141441 0.110252 0.000237159 0.00248947 -0.000829993 0.00152815 -0.00288858 -0.00528181 -0.000189438 -0.0160845 -0.00447884 -0.00469624 -0.00473662 -0.0113709 -0.00537477 -0.00271064
internal_weight=0 82250 15461 4740 57 10721 44 66789 16275 50514 259 16253 808 5510 50255 56 24104 26151 10677 4917 5760 4683 15445 543 4967 4571 4935 647 455 203
internal_count=87760 82250 15461 4740 57 10721 44 66789 16275 50514 259 16253 808 5510 50255 56 24104 26151 10677 4917 5760 4683 15445 543 4967 4571 4935 647 455 203
is_linear=0
shrinkage=0.0291667


Tree=7
num_leaves=31
num_cat=0
split_feature=22 6 47 6 2 16 23 16 6 11 51 30 9 36 4 36 5 20 47 51 20 51 41 5 17 10 59 62 19 23
split_gain=151.917 118.915 88.1562 107.768 145.211 164.983 104.078 87.4385 69.6089 123.249 61.8677 53.9542 244.642 108.89 182.288 59.4492 215.651 108.424 98.9247 57.9693 56.2492 52.3531 50.156 46.5636 54.3744 46.9834 39.2609 38.5006 36.2152 59.6348
threshold=0.088315997272729888 0.22819068282842639 -0.093435104936361299 0.82553920149803173 -0.24501633644104001 2.9999434947967534 1.6268164515495303 0.99096935987472545 0.82553920149803173 -0.1988527253270149 -0.075239393860101686 -2.9546034336090083 -0.040224988013505929 -0.068177565932273851 -0.036339171230792992 -0.12212199717760085 1.3968366384506228 -0.26705954968929285 -0.076662376523017869 -0.067905660718679414 -0.38951793313026423 -0.071504089981317506 -0.046669092029333108 0.16923261433839801 -2.1324565410614009 2.7912788391113286 -0.74769195914268483 0.42099538445472723 -0.32975728809833521 0.63810229301452648
decision_type=2 2 2 2 2 2 2 2 2 2 2 2 2 2 2 2 2 2 2 2 2 2 2 2 2 2 2 2 2 2
left_child=1 11 8 7 5 -5 -6 22 -3 -10 -9 12 13 21 -15 16 20 18 -17 -19 -13 -1 -4 25 -25 27 -26 -2 29 -28
right_child=23 2 3 4 6 -7 -8 10 9 -11 -12 15 -14 14 -16 17 -18 19 -20 -21 -22 -23 -24 24 26 -27 28 -29 -30 -31
leaf_value=-0.045878359753073639 -0.049089116354743098 -0.012157693429377512 -0.0076833557511290489 0.0046739805326461133 0.012703175625623914 0.19733531952845196 -0.056698580218976564 -0.053373352499493043 -0.2050042860302842 -0.026705426093918315 -0.013046945510518066 -0.0089577916374857496 -0.18541226984650988 -0.045075404952178641 0.082369791704547099 0.0016989492428161183 0.069026248020715969 0.0023130529259695956 0.009996662829091044 -0.0030971290454613991 0.00043075415958053796 -0.0065620909602117986 0.0013080581863856068 -0.055956020767572175 -0.049665021427888034 0.048756712115788484 -0.0081680227924172781 -0.0044091813031297052 -0.023230198641811532 0.0645274854901908
leaf_weight=187 77 2452 3731 45 1352 34 84 177 20 97 1251 4216 30 60 116 10465 155 22623 11536 11019 5298 544 5987 127 115 59 1694 3456 711 42
leaf_count=187 77 2452 3731 45 1352 34 84 177 20 97 1251 4216 30 60 116 10465 155 22623 11536 11019 5298 544 5987 127 115 59 1694 3456 711 42
internal_value=0 0.000609521 -0.00426026 -0.00211016 0.0131289 0.0946373 0.00825776 -0.004231 -0.0146419 -0.0619679 -0.0184331 0.00173736 -0.0127779 -0.00645021 0.0357909 0.00195405 -0.00244898 0.00272907 0.00607484 0.00052463 -0.00367174 -0.0173762 -0.00208728 -0.00927552 -0.0154579 -0.0044937 -0.0132342 -0.00553967 -0.0112958 -0.00608992
internal_weight=0 81479 15230 12661 1515 79 1436 11146 2569 117 1428 66249 937 907 176 65312 9669 55643 22001 33642 9514 731 9718 6281 2689 3592 2562 3533 2447 1736
internal_count=87760 81479 15230 12661 1515 79 1436 11146 2569 117 1428 66249 937 907 176 65312 9669 55643 22001 33642 9514 731 9718 6281 2689 3592 2562 3533 2447 1736
is_linear=0
shrinkage=0.06125


Tree=8
num_leaves=31
num_cat=0
split_feature=15 6 22 9 2 2 38 61 63 49 6 27 5 40 7 13 54 27 44 22 5 16 19 4 22 20 30 12 10 52
split_gain=124.934 93.9892 88.5484 188.665 150.418 119.77 291.858 82.0447 73.437 104.89 63.1834 236.549 105.479 146.169 89.2873 92.6863 79.0558 73.259 71.4606 70.5114 60.0149 50.5062 47.1332 58.562 41.7337 40.6274 38.764 33.9101 33.7132 34.2519
threshold=-0.94501954317092884 0.18909720331430438 -0.14181007444858548 -0.048558674752712243 -0.3615919947624206 -0.46008799970149988 -0.61927565932273854 -0.12843511253595349 2.3256249427795415 0.073584791272878661 0.024793725460767749 -0.58663925528526295 1.9047875404357912 0.052423791959881789 -0.32161477208137507 -0.49164569377899164 -0.026582224294543263 -0.53530392050743092 0.57171979546546947 -0.13441867381334302 -0.026952821761369702 0.99096935987472545 -0.32239371538162226 0.53507232666015636 -0.17909070849418637 -0.3377781063318252 0.32056485116481787 1.1656902432441714 -0.24615078419446942 -0.23853490501642224
decision_type=2 2 2 2 2 2 2 2 2 2 2 2 2 2 2 2 2 2 2 2 2 2 2 2 2 2 2 2 2 2
left_child=20 10 3 28 -5 6 -4 -8 21 -10 11 -2 14 16 15 -12 -14 24 -16 -19 27 -7 23 -22 -13 -15 -25 -1 -3 -30
right_child=1 2 5 4 -6 8 7 -9 9 -11 12 17 13 25 18 -17 -18 19 -20 -21 22 -23 -24 26 -26 -27 -28 -29 29 -31
leaf_value=-0.011905232695124683 -0.13608933001584775 -0.012837028461367861 0.26138663313805088 -0.23778655182193548 0 -0.0011210751049365226 0.04753856099016595 0.003926268037530877 0 0.17001897362920312 0.020170508435773914 -0.12306598773609957 0.15117362031977719 0.074563597198804163 0.0027318227617097748 -0.013807184309854503 0.026877974730457836 0.0074956147890856226 0.010645964447937887 -0.00081053732102549444 -0.012114350733698733 -0.016908911468847824 -0.029360616590470578 0 -0.020890171375367573 -0.0030803879005544001 0.11789123205918217 0.0034460544793612304 3.4568481619160601e-05 -0.014160376162205402
leaf_weight=875 51 3233 20 26 22 12137 241 732 22 24 371 20 60 30 20244 1983 51 4790 6022 27369 2222 879 759 30 345 173 22 1602 2512 893
leaf_count=875 51 3233 20 26 22 12137 241 732 22 24 371 20 60 30 20244 1983 51 4790 6022 27369 2222 879 759 30 345 173 22 1602 2512 893
internal_value=0 0.000521679 -0.00314815 -0.00913895 -0.134709 -0.000257818 0.0208569 0.015315 -0.00190663 0.0774335 0.00176841 -0.000124022 0.00391863 0.040524 0.00349708 -0.00821018 0.0992254 7.18988e-05 0.00456797 0.000408962 -0.00930898 -0.00223103 -0.0152968 -0.010352 -0.0280633 0.00560791 0.0539643 -0.00174725 -0.00814424 -0.0035213
internal_weight=0 82250 20741 6686 48 14055 993 973 13062 46 61509 32575 28934 314 28620 2354 111 32524 26266 32159 5510 13016 3033 2274 365 203 52 2477 6638 3405
internal_count=87760 82250 20741 6686 48 14055 993 973 13062 46 61509 32575 28934 314 28620 2354 111 32524 26266 32159 5510 13016 3033 2274 365 203 52 2477 6638 3405
is_linear=0
shrinkage=0.0632099


Tree=9
num_leaves=31
num_cat=0
split_feature=2 54 61 41 11 18 30 20 59 38 2 38 18 5 61 44 13 49 38 40 40 47 6 4 59 61 6 9 49 54
split_gain=103.757 202.406 121.311 132.906 103.583 92.8457 67.4145 149.113 61.6472 54.4554 66.2871 54.0934 121.575 60.6311 59.9078 56.7622 43.906 41.3874 40.4836 38.4236 37.669 34.9151 33.5134 58.7025 39.432 28.9295 27.8368 23.5209 22.639 32.4518
threshold=0.14995603263378146 0.517632156610489 -0.07018787786364554 -0.65162014961242665 0.25248326361179357 0.33226591348648077 -1.6842811703681944 0.30079190433025366 1.0000000180025095e-35 1.1747028231620791 1.5851631164550783 0.77261647582054149 -1.0363680124282835 -0.050744431093335145 -0.41033309698104853 -0.67373251914978016 0.62118119001388561 -0.44084015488624567 2.8991123437881474 -0.11136616021394728 -0.16174038499593732 -0.080045234411954866 0.82553920149803173 -0.64030507206916798 -0.49766497313976282 -0.53363856673240651 -0.044311897829174988 -0.11426927149295805 -0.067946944385766969 0.36498676240444189
decision_type=2 2 2 2 2 2 2 2 2 2 2 2 2 2 2 2 2 2 2 2 2 2 2 2 2 2 2 2 2 2
left_child=1 4 11 9 5 6 7 -1 -8 26 21 12 14 22 -2 18 17 -14 -15 -17 -5 -11 23 -13 -24 -18 -4 -7 -22 -30
right_child=2 -3 3 20 -6 27 8 -9 -10 10 -12 13 16 15 -16 19 25 -19 -20 -21 28 -23 24 -25 -26 -27 -28 -29 29 -31
leaf_value=-0.0044417409860358038 0.11967791577224329 0.19975878762782656 0.0010383394874070883 0 -0.11484294919027464 -0.018679899163613498 0.0011153145480924122 -0.068361238679133393 0.0074198832975623068 0 0.062901729205057683 -0.021383659703626521 0.0019915511439973846 0.0037767639154756413 0.023873815791825445 -0.017668997940175013 0 -0.0067738466509977505 -0.025558486117785842 0.00085658195251629504 -0.02757205492056012 -0.03835639508175881 -0.043380420510340668 0.00022408910113158099 0.02069658694535257 0.029733972404149982 0.079578537341937816 0.004080907770572898 -0.043737197307177886 -0.097278712445557761
leaf_weight=2430 45 20 59 47 30 1144 57383 154 6837 134 37 567 5025 1241 111 3123 197 3551 215 442 159 211 36 3316 442 300 41 164 189 110
leaf_count=2430 45 20 59 47 30 1144 57383 154 6837 134 37 567 5025 1241 111 3123 197 3551 215 442 159 211 36 3316 442 300 41 164 189 110
internal_value=0 0.00106652 -0.004093 -0.0255194 0.000999798 0.00105916 0.00138978 -0.00847012 0.00179528 -0.000840052 -0.0127155 -0.0029264 0.000414002 -0.00627226 0.0551437 -0.0109637 -0.000465315 -0.0015723 -0.000169431 -0.0152144 -0.0479586 -0.0224633 -0.000741783 -0.00278647 0.01469 0.0175029 0.0388857 -0.015396 -0.0534535 -0.0653287
internal_weight=0 68162 19598 987 68142 68112 66804 2584 64220 482 382 18611 9229 9382 156 5021 9073 8576 1456 3565 505 345 4361 3883 478 497 100 1308 458 299
internal_count=87760 68162 19598 987 68142 68112 66804 2584 64220 482 382 18611 9229 9382 156 5021 9073 8576 1456 3565 505 345 4361 3883 478 497 100 1308 458 299
is_linear=0
shrinkage=0.0625


Tree=10
num_leaves=31
num_cat=0
split_feature=20 24 38 18 38 61 41 6 5 21 6 9 34 22 62 17 23 11 12 22 2 38 63 40 9 47 30 5 62 6
split_gain=93.8436 413.007 91.7371 83.6836 76.0604 81.9307 179.282 64.4485 114.854 175.766 77.2677 88.103 96.981 68.1347 71.3545 70.564 60.0224 72.7786 61.359 48.1933 47.4609 43.658 26.383 23.503 23.4063 21.8822 7.55498 14.8945 12.087 4.03131
threshold=0.23666456341743472 -0.32012502849102015 -0.98518145084381092 0.33226591348648077 -0.048971246927976601 -0.07018787786364554 -0.65162014961242665 0.82553920149803173 1.3968366384506228 0.59983640909194957 0.17185288667678836 -0.10022027045488356 0.053165666759014137 -0.11800734698772429 0.32555828988552099 -0.4616048783063888 2.1276810169219975 -0.13197907805442807 1.0000000180025095e-35 -0.1274948567152023 0.85643193125724804 -0.048971246927976601 0.30166184902191168 -0.16471680998802182 -0.11426927149295805 -0.083315875381231294 0.18245429545640948 -0.44115838408470148 -0.73195689916610707 -0.29878558218479151
decision_type=2 2 2 2 2 2 2 2 2 2 2 2 2 2 2 2 2 2 2 2 2 2 2 2 2 2 2 2 2 2
left_child=3 22 -3 7 16 20 -7 10 21 -10 13 12 -12 14 -1 -15 17 -4 -18 -13 -6 25 -2 -23 26 -9 27 28 -5 -28
right_child=1 2 4 24 5 6 -8 8 9 -11 11 19 -14 15 -16 -17 18 -19 -20 -21 -22 23 -24 -25 -26 -27 29 -29 -30 -31
leaf_value=0.0011240960956992307 -0.047127777618044056 -0.058162070270544083 -0.014783875579630163 0 0.00036367811437985458 0.0017540906607473202 -0.022176715940321088 -0.028591225933597749 0.087621536116069654 0 0.0005019267564678006 -0.0050620707869563058 0.016146601909495375 0.0043354792898326541 0.0044967030201269057 -0.00086602846038050913 0.051725527488690325 0.0041485620896023591 0.0043109651575845755 -0.001151866104983437 -0.003842333146428247 0 -0.13160339233187568 0.014513200380869395 0.0021333652302954697 0 0 0.0024379197212519455 -0.010299306843089218 -0.011904805791269277
leaf_weight=26229 20 25 191 113 3916 480 550 29 38 31 7038 4693 357 2499 6833 19375 44 1530 80 6797 5140 118 20 325 167 192 24 119 364 529
leaf_count=26229 20 25 191 113 3916 480 550 29 38 31 7038 4693 357 2499 6833 19375 44 1530 80 6797 5140 118 20 325 167 192 24 119 364 529
internal_value=0 -0.00238209 -0.00204643 0.000393949 -0.0019066 -0.00291684 -0.0107701 0.000525919 0.00914956 0.0454453 0.000436729 -0.0011663 0.00129279 0.000992571 0.00182907 -0.000259772 0.0034737 0.00189451 0.0232656 -0.00277182 -0.00199459 0.00497942 -0.0960315 0.0104597 -0.00688268 -0.00481838 -0.00842159 -0.00524085 -0.00770683 -0.0113742
internal_weight=0 11996 11956 75870 11931 10086 1030 74554 733 69 73821 18885 7395 54936 33062 21874 1845 1721 124 11490 9056 664 40 443 1316 221 1149 596 477 553
internal_count=87866 11996 11956 75870 11931 10086 1030 74554 733 69 73821 18885 7395 54936 33062 21874 1845 1721 124 11490 9056 664 40 443 1316 221 1149 596 477 553
is_linear=0
shrinkage=0.0291667


Tree=11
num_leaves=31
num_cat=0
split_feature=63 27 20 6 36 61 9 5 62 63 6 2 41 40 2 2 5 5 9 5 38 4 4 10 51 22 5 60 36 34
split_gain=105.823 194.628 183.874 116.322 85.5649 587.95 75.3765 93.9203 77.4053 81.0939 75.163 66.6793 128.055 121.537 285.249 61.9538 85.0876 56.1721 54.924 187.256 53.3899 40.6358 39.9421 38.8557 36.1971 29.3197 43.0729 68.5 56.736 36.6531
threshold=-0.090786203742027269 -0.4733020663261413 0.23666456341743472 0.2388260290026665 -1.0000000180025095e-35 1.6403635144233706 -0.11557260155677794 -0.27536645531654352 -0.45174920558929438 -0.30780649185180659 -0.14297632873058316 -0.32135319709777826 0.20183408260345462 1.9979031682014468 -0.289089486002922 -0.4084417968988418 -0.26327563822269434 1.3968366384506228 -0.089263014495372758 0.3344265222549439 -1.0809454321861265 -0.32690751552581782 0.6287347972393037 -0.26964710652828211 -0.061452079564332955 -0.17909070849418637 1.0768688917160036 1.0000000180025095e-35 -0.10601613298058508 0.053165666759014137
decision_type=2 2 2 2 2 2 2 2 2 2 2 2 2 2 2 2 2 2 2 2 2 2 2 2 2 2 2 2 2 2
left_child=3 2 -2 4 6 21 7 24 10 -10 -8 12 22 18 -15 16 -14 -9 19 -13 -20 -6 -3 -7 -1 -5 -27 28 -28 -29
right_child=1 11 -4 25 5 23 8 17 9 -11 -12 13 15 14 -16 -17 -18 -19 20 -21 -22 -23 -24 -25 -26 26 27 29 -30 -31
leaf_value=-0.0032197243812368674 -0.0081699009153179472 -0.096514838699967714 -0.13670472282477245 -0.019872601103064557 -0.021159435724672014 0.044182025880884941 -0.016842821321124461 0.0017528550116309609 0.0053309872296277974 0.0015877219144232607 -0.0002360571728207081 -0.00051951531216692644 0.047434385593676541 0.10765998164029483 0 -0.014302366180577168 -0.0023431562741639263 0.024780998940640543 -0.041861988453131681 0.019908705435171148 -0.0019421391990959028 0.0065159188428593378 -0.01337947951839534 0.13307794932012082 -0.011977223395848731 -0.0037164355081314407 0.015650460572732987 0.012525851215563146 -0.015656151528012235 0.057993228387350985
leaf_weight=4804 39 25 23 122 100 20 315 3425 8819 25309 9160 3938 41 38 90 586 486 125 38 567 22225 121 22 43 631 6218 90 227 191 28
leaf_count=4804 39 25 23 122 100 20 315 3425 8819 25309 9160 3938 41 38 90 586 486 125 38 567 22225 121 22 43 631 6218 90 227 191 28
internal_value=0 -0.00166384 -0.0607587 0.000815876 0.00135029 0.0196677 0.00124564 -0.00151624 0.00182165 0.00256381 -0.000819903 -0.00152245 -0.00938436 -0.0011722 0.0311289 -0.00680438 0.000964406 0.00264855 -0.00133792 0.00198518 -0.00202385 -0.00465166 -0.0640322 0.109673 -0.00429176 -0.00324976 -0.00290493 0.00594892 -0.0045607 0.018705
internal_weight=0 28118 62 59748 52872 284 52588 8985 43603 34128 9475 28056 1160 26896 128 1113 527 3550 26768 4505 22263 221 47 63 5435 6876 6754 536 281 255
internal_count=87866 28118 62 59748 52872 284 52588 8985 43603 34128 9475 28056 1160 26896 128 1113 527 3550 26768 4505 22263 221 47 63 5435 6876 6754 536 281 255
is_linear=0
shrinkage=0.0333333


Tree=12
num_leaves=31
num_cat=0
split_feature=21 49 5 9 6 6 9 61 38 40 19 40 2 34 34 36 5 36 49 32 9 61 36 23 6 4 50 23 36 22
split_gain=82.2023 103.826 99.0944 84.4735 117.017 62.9382 59.2057 59.2211 62.658 55.4143 55.3281 59.033 69.1102 51.8764 55.4716 100.036 184.754 90.997 72.3246 70.4611 68.5497 45.4835 90.4442 73.1131 35.7845 38.0645 53.4483 34.6699 27.7774 26.6774
threshold=0.71898069977760326 -0.43275408446788782 -0.50509384274482716 -0.11426927149295805 -0.044311897829174988 0.13695576041936877 0.21788220852613452 -0.53363856673240651 0.77261647582054149 -0.15492226183414456 -0.20843146741390225 0.29901748895645147 0.092274874448776259 -0.60340014100074757 -0.31466135382652277 -0.10601613298058508 1.3968366384506228 -0.10738950595259665 2.0669484138488774 -0.14223430305719373 -0.077338155359029756 -0.07018787786364554 0.038084438070654876 -0.31137366592884058 0.82553920149803173 -0.64030507206916798 0.14845376461744311 -0.50923931598663319 -0.13825548440217969 -0.13441867381334302
decision_type=2 2 2 2 2 2 2 2 2 2 2 2 2 2 2 2 2 2 2 2 2 2 2 2 2 2 2 2 2 2
left_child=2 6 3 -1 29 -6 24 -8 -9 -10 11 21 -13 28 17 16 -16 18 -15 -17 -19 23 -23 -3 25 26 -2 -27 -4 -5
right_child=1 10 13 4 5 -7 7 8 9 -11 -12 12 -14 14 15 19 -18 20 -20 -21 -22 22 -24 -25 -26 27 -28 -29 -30 -31
leaf_value=-0.011848597589770681 0.02873671068714799 -0.0087885289967497456 -0.014201209360659823 0.013190101401352922 0.0068889549210621546 -0.0067321311290060391 -0.0018494024641127964 0.056131921417497142 0 -0.034221253045047098 -0.027692635615610778 0.11545766675553185 0 -0.001009362419112707 0.0041448762356890807 -0.0077826106092521771 0.043845330621402202 0.0075957644480320122 0.018671202085606992 5.9768487520442711e-05 0 -0.027487390769625628 0.00082196390272687306 0.0027576205460025918 0.010831680411573749 0.0034535498626628515 -0.011823896222620338 -0.0029272346010791716 0.0023588822944306011 -0.011669788875267102
leaf_weight=2361 78 3925 748 91 3275 1032 1156 20 124 406 316 20 23 9698 5333 3039 296 11810 462 23851 3536 652 402 1862 847 6331 965 2884 291 2032
leaf_count=2361 78 3925 748 91 3275 1032 1156 20 124 406 316 20 23 9698 5333 3039 296 11810 462 23851 3536 652 402 1862 847 6331 965 2884 291 2032
internal_value=0 -0.002711 0.00083418 -0.00396699 -0.00100487 0.00352359 -5.15234e-05 -0.00851505 -0.0217282 -0.0254967 -0.00738223 -0.00638616 0.0491427 0.00155619 0.0017553 0.000408885 0.00631061 0.00345477 -7.12908e-05 -0.000810289 0.00581773 -0.00679951 -0.0162755 -0.0049979 0.00120932 0.000372103 -0.00836993 0.00140909 -0.00914216 -0.0103978
internal_weight=0 20011 67855 8791 6430 4307 12811 1706 550 530 7200 6884 43 59064 58025 32519 5629 25506 10160 26890 15346 6841 1054 5787 11105 10258 1043 9215 1039 2123
internal_count=87866 20011 67855 8791 6430 4307 12811 1706 550 530 7200 6884 43 59064 58025 32519 5629 25506 10160 26890 15346 6841 1054 5787 11105 10258 1043 9215 1039 2123
is_linear=0
shrinkage=0.0486111


Tree=13
num_leaves=31
num_cat=0
split_feature=63 27 20 6 36 61 9 18 21 62 20 6 2 41 40 21 20 2 5 62 30 6 20 23 61 18 9 50 21 18
split_gain=100.955 166.692 173.43 106.046 96.661 641.681 67.802 99.1296 160.527 68.0635 79.8094 68.9585 63.3249 124.153 104.816 262.153 75.2328 56.8856 82.8418 52.9881 80.9069 79.6995 45.6926 44.6281 38.8112 37.6671 36.1286 50.6706 117.459 35.6227
threshold=-0.090786203742027269 -0.4733020663261413 0.23666456341743472 0.2388260290026665 -1.0000000180025095e-35 1.6403635144233706 -0.11557260155677794 0.1714107617735863 -1.1758524775505064 -0.45174920558929438 -0.26027995347976679 -0.14297632873058316 -0.32135319709777826 0.20183408260345462 1.9979031682014468 0.27178834378719335 0.047465877607464797 -0.4084417968988418 -0.26327563822269434 -0.25892838835716242 -1.1587163209915159 -0.16789992898702619 -0.38951793313026423 -0.57486259937286366 -0.42789749801158899 0.33226591348648077 -0.10469067096710204 -0.4763865321874618 -0.82007151842117298 0.025819249451160434
decision_type=2 2 2 2 2 2 2 2 2 2 2 2 2 2 2 2 2 2 2 2 2 2 2 2 2 2 2 2 2 2
left_child=3 2 -2 4 6 24 7 8 -1 11 -11 -8 13 -3 19 16 -16 18 -15 21 -21 -14 -9 -7 -6 26 29 -28 -29 -5
right_child=1 12 -4 25 5 23 9 22 -10 10 -12 -13 14 17 15 -17 -18 -19 -20 20 -22 -23 -24 -25 -26 -27 27 28 -30 -31
leaf_value=0.060230066816138114 -0.005194479629009441 -0.062971168913255979 -0.12983741679660496 0.014794534530641142 -0.033375541765013499 0.17319210310925667 -0.016080573618323629 -0.0054502880623813858 0.00455988551639523 0.0040547874076468701 0.00080448391500307866 -0.00017510750607848758 -0.065853082311454147 0.046682371733346419 0.027811803334784706 -0.0040338209422495592 0.13594181820779977 -0.013797925140829091 -0.002454577463204652 0.017277655508700994 -0.0013027099980209855 -0.0081063132907688573 -0.00030549045772899799 0.080461202482820904 0.00054875172025702882 -0.011317743997076935 -0.016739103004882832 0.03530728516071982 -0.0040790185956663602 -0.00027366573779292325
leaf_weight=63 39 47 23 186 43 20 315 3656 952 17034 17094 9160 31 41 22 81 25 586 486 261 26074 402 4314 43 178 584 344 85 3354 2323
leaf_count=63 39 47 23 186 43 20 315 3656 952 17034 17094 9160 31 41 22 81 25 586 486 261 26074 402 4314 43 178 584 344 85 3354 2323
internal_value=0 -0.0016285 -0.0563352 0.000793531 0.00130395 0.0207613 0.00119315 -0.00142522 0.00831362 0.00173958 0.00243557 -0.000735635 -0.00149681 -0.00915978 -0.00115514 0.0288298 0.0917873 -0.00661517 0.000803081 -0.00130979 -0.00110714 -0.0129405 -0.00270317 0.114772 -0.0047008 -0.00308764 -0.00227599 -0.00434502 -0.00301779 0.000724092
internal_weight=0 28118 62 59748 52872 284 52588 8985 1015 43603 34128 9475 28056 1160 26896 128 47 1113 527 26768 26335 433 7970 63 221 6876 6292 3783 3439 2509
internal_count=87866 28118 62 59748 52872 284 52588 8985 1015 43603 34128 9475 28056 1160 26896 128 47 1113 527 26768 26335 433 7970 63 221 6876 6292 3783 3439 2509
is_linear=0
shrinkage=0.0333333


Tree=14
num_leaves=31
num_cat=0
split_feature=20 24 6 40 41 6 38 38 19 40 5 51 63 63 36 2 51 5 10 40 51 61 9 62 18 22 49 11 5 64
split_gain=74.9689 388.079 70.0506 170.684 163.976 92.8874 66.5421 65.5859 57.0696 126.361 56.9097 70.8153 79.1253 56.3701 103.392 68.541 55.3778 60.9294 56.2363 54.9963 48.7188 46.801 42.4542 41.4907 63.5392 38.3682 40.6302 36.3971 30.9206 30.0053
threshold=0.30079190433025366 -0.32012502849102015 0.82553920149803173 0.052423791959881789 -0.024072877131402489 0.2388260290026665 -0.98518145084381092 0.16322521865367892 -0.20843146741390225 0.14668677747249606 -0.50509384274482716 -0.070707686245441423 -0.18735779821872708 -0.30780649185180659 -0.051620058715343468 -0.57053977251052845 -0.060815066099166863 2.9993865489959721 0.070529874414205565 -0.13205898553133008 -0.080159891396760927 0.52763387560844432 -0.098849724978208528 1.0000000180025095e-35 -0.36148658394813532 -0.094118654727935777 -0.21307360380887982 0.83529576659202587 2.9993865489959721 -0.34610871970653528
decision_type=2 2 2 2 2 2 2 2 2 2 2 2 2 2 2 2 2 2 2 2 2 2 2 2 2 2 2 2 2 2
left_child=2 -2 5 25 -5 10 -3 23 9 -9 11 12 -1 14 -12 -15 17 22 -19 -18 -10 -21 -7 28 -25 -4 27 -27 -8 -13
right_child=1 6 3 4 -6 16 7 8 20 -11 13 29 -14 15 -16 -17 19 18 -20 21 -22 -23 -24 24 -26 26 -28 -29 -30 -31
leaf_value=0.013037195108198637 -0.31621065414278215 -0.16646619370216481 -0.024138216877671637 0 0.30844673005663059 0 -0.030354203911477865 -0.0083239419870632866 -0.14626722509833234 0.14847245407928733 0.0069362353270355486 -0.016186247816724939 -0.018449579343385876 -0.021446863186308639 0.098221202705370714 0.0018652154214760723 -0.02056268950623261 0.023611828399636017 -0.06394804584355171 0.042795458312766099 -0.029128161257336877 0 -0.012009000687014685 0.044637614060965836 0.0039552473627526893 0.001833255561352219 0.077810301935767545 0.061966024322560001 0.019108611187685663 -0.0015975445572594966
leaf_weight=2481 31 20 139 20 31 3834 307 8331 39 39 14941 3311 796 985 97 40805 268 56 269 448 207 338 5930 424 1132 477 99 100 121 1790
leaf_count=2481 31 20 139 20 31 3834 307 8331 39 39 14941 3311 796 985 97 40805 268 56 269 448 207 338 5930 424 1132 477 99 100 121 1790
internal_value=0 -0.00683844 0.000992052 0.025763 0.182412 0.000700753 -0.00585974 -0.00548163 -0.00882998 -0.00749838 0.00197174 -0.00472443 0.00514842 0.0029728 0.00757774 0.00129688 -0.00666605 -0.00870551 -0.0464368 0.0121082 -0.0509255 0.0242504 -0.00736872 0.00866231 0.0155481 0.0149837 0.024194 0.013624 -0.0145302 -0.0112213
internal_weight=0 10651 77215 866 51 76349 10620 10600 8616 8370 65206 8378 3277 56828 15038 41790 11143 10089 325 1054 246 786 9764 1984 1556 815 676 577 428 5101
internal_count=87866 10651 77215 866 51 76349 10620 10600 8616 8370 65206 8378 3277 56828 15038 41790 11143 10089 325 1054 246 786 9764 1984 1556 815 676 577 428 5101
is_linear=0
shrinkage=0.0875


Tree=15
num_leaves=31
num_cat=0
split_feature=63 1 6 18 20 22 18 17 9 60 18 30 6 53 36 2 40 2 41 62 6 30 40 9 7 21 5 16 5 36
split_gain=72.2489 123.192 78.8263 63.6831 94.4788 76.8054 78.0359 58.6249 59.4184 125.112 123.616 64.1055 62.4063 105.071 69.2384 56.5148 115.293 248.342 114.857 60.4536 76.3573 51.2144 48.5534 45.836 44.7025 44.6994 41.6029 40.2983 92.4159 84.9728
threshold=-0.10426272451877593 -0.54923820495605458 0.17185288667678836 0.20564343780279162 -0.30532379448413843 -0.15126139670610425 1.0000000180025095e-35 -0.26428581774234766 -0.065113995224237428 2.9993366003036503 0.048036092892289169 -1.0000000180025095e-35 0.049952540546655662 -0.58310478925704945 -1.0000000180025095e-35 -0.32135319709777826 1.9979031682014468 -0.289089486002922 0.23844885826110843 -0.31849750876426691 -0.16789992898702619 -1.1587163209915159 -0.078262720257043825 -0.080107871443033205 -0.10493628680706023 -0.78197121620178212 -0.35190106928348536 2.9999434947967534 1.3968366384506228 -0.058368772268295281
decision_type=2 2 2 2 2 2 2 2 2 2 2 2 2 2 2 2 2 2 2 2 2 2 2 2 2 2 2 2 2 2
left_child=2 -2 7 4 5 -4 -7 23 12 11 -11 -10 13 -9 -14 18 19 -18 22 20 -17 -21 -3 -1 25 -20 -26 28 -6 -29
right_child=1 15 3 -5 27 6 -8 8 9 10 -12 -13 14 -15 -16 16 17 -19 24 21 -22 -23 -24 -25 26 -27 -28 29 -30 -31
leaf_value=0.015633230075464168 -0.10530005665910341 -0.13667817320342535 -0.0040287744579617559 -0.0072146489794265075 -0.0033733537268925743 0.081971764252322221 0.014417846011074292 -0.084445742014385955 0.023127430028673165 0.1593324108237863 0 0.0024519341877975599 0.0035573531824520817 -0.00061101464462182142 0.068294607181175998 -0.12659994283769049 0.16625754821476679 0 0.029276767358436664 0.021913539250947758 -0.016242193960474799 -0.0017543871938097864 -0.030075337761373305 0.00049127831628333735 -0.025067187448210196 -0.025431117320820595 0.0080275044144061131 -0.033031798757985176 0.030302858989323007 0.034138180445314671
leaf_weight=1878 38 34 780 5599 5817 62 1577 49 687 36 22 1960 17174 20955 55 24 42 92 45 299 350 27242 53 1111 158 546 567 339 277 68
leaf_count=1878 38 34 780 5599 5817 62 1577 49 687 36 22 1960 17174 20955 55 24 42 92 45 299 350 27242 53 1111 158 546 567 339 277 68
internal_value=0 -0.00226799 0.00120108 -0.00243152 0.000513167 0.0102029 0.0172895 0.00241345 0.00183403 0.0100455 0.0938736 0.00801266 0.0012396 -0.000831277 0.00379406 -0.00211742 -0.00153683 0.0512008 -0.0133575 -0.0018085 -0.0247149 -0.00147872 -0.0776987 0.0101772 -0.00871041 -0.0203933 0.000104602 -0.0030133 -0.00175799 -0.020543
internal_weight=0 29490 58446 14519 8920 2419 1639 43927 40938 2705 58 2647 38233 21004 17229 29452 28049 134 1403 27915 374 27541 87 2989 1316 591 725 6501 6094 407
internal_count=87936 29490 58446 14519 8920 2419 1639 43927 40938 2705 58 2647 38233 21004 17229 29452 28049 134 1403 27915 374 27541 87 2989 1316 591 725 6501 6094 407
is_linear=0
shrinkage=0.0571429


Tree=16
num_leaves=31
num_cat=0
split_feature=22 18 36 34 36 9 5 32 36 19 62 61 38 7 16 5 62 5 19 59 40 6 44 38 6 9 51 4 47 62
split_gain=65.9966 59.8248 56.0223 52.6305 113.942 134.432 75.4881 58.0622 241.37 185.824 43.5964 58.7401 57.7772 50.258 40.0809 39.6339 50.0858 46.5423 32.9351 26.8643 45.6814 30.3198 21.8221 21.0497 18.1301 16.2007 16.0856 10.9089 9.15763 8.94727
threshold=0.088315997272729888 0.33226591348648077 0.2266509681940079 -0.31466135382652277 -0.10738950595259665 -0.080107871443033205 0.22024153918027881 -0.14223430305719373 -0.069577172398567186 2.9994077682495122 0.21833035349845889 0.28934727609157568 2.0118032693862919 -0.76500642299652089 0.82659238576889049 2.9993865489959721 0.25311194360256201 0.40606118738651281 -0.3260804414749145 -0.74769195914268483 -0.13924918323755262 1.2750775218009951 -1.2248284220695493 0.95876437425613414 1.2750775218009951 -0.11426927149295805 -0.073046673089265809 0.37098969519138342 -0.071962870657443986 -0.53013953566551197
decision_type=2 2 2 2 2 2 2 2 2 2 2 2 2 2 2 2 2 2 2 2 2 2 2 2 2 2 2 2 2 2
left_child=1 2 3 4 6 -6 -1 8 -5 -9 -2 13 14 18 26 16 27 -18 22 20 -15 -21 -12 -17 -20 29 -13 -4 -14 -3
right_child=10 25 15 7 5 -7 -8 9 -10 -11 11 12 28 19 -16 23 17 -19 24 21 -22 -23 -24 -25 -26 -27 -28 -29 -30 -31
leaf_value=-0.0033940793577757001 -0.073846165667927052 -0.0036076111776649168 -0.038842002526058565 -0.019499189620939286 0.0086822957531400673 -0.0021500302131487762 0.013731875755683482 -0.00017432043463922486 0.013271172950674398 0.12911942773097465 0.031147781056956456 0.01872329207652822 0 0.004667289637552194 0 0 0 0.057745547168513593 -0.026863606347647638 -0.0037442468793720662 -0.029354011900712518 0.012403915612307437 -0.013436576939777969 0.09342527869035927 -0.081527326326845187 0.0027346793719219857 0.13310205694557964 0 -0.042062321581353479 -0.018087811837940872
leaf_weight=11375 35 311 56 2321 13491 5838 1000 44635 1223 40 35 20 22 196 26 22 110 105 254 4067 356 456 752 44 40 170 31 28 21 856
leaf_count=11375 35 311 56 2321 13491 5838 1000 44635 1223 40 35 20 22 196 26 22 110 105 254 4067 356 456 752 44 40 170 31 28 21 856
internal_value=0 0.000492757 0.000708729 0.000594687 0.00249703 0.00538264 -0.00196648 -0.000644908 -0.00803806 -4.63249e-05 -0.00587521 -0.00540953 0.0354883 -0.00629475 0.0678698 0.0241975 0.0126327 0.0291507 -0.0181704 -0.00365863 -0.0162965 -0.00199671 -0.0107658 0.0683649 -0.0361499 -0.0120722 0.0988878 -0.0232132 -0.00996512 -0.0146919
internal_weight=0 81625 80288 79923 31704 19329 12375 48219 3544 44675 6311 6276 120 6156 77 365 299 215 1081 5075 552 4523 787 66 294 1337 51 84 43 1167
internal_count=87936 81625 80288 79923 31704 19329 12375 48219 3544 44675 6311 6276 120 6156 77 365 299 215 1081 5075 552 4523 787 66 294 1337 51 84 43 1167
is_linear=0
shrinkage=0.06


Tree=17
num_leaves=31
num_cat=0
split_feature=8 36 6 51 18 9 23 51 6 27 27 9 40 18 17 47 2 47 31 6 9 20 20 51 10 31 20 11 6 40
split_gain=53.284 55.3836 49.5769 70.331 110.98 95.7971 59.721 104.829 47.3858 198.544 52.5509 47.0166 55.4353 51.9195 44.3071 41.5178 50.6205 40.5307 36.8923 36.357 43.5942 35.3199 30.173 33.2631 29.1779 24.6883 21.2218 37.8191 41.0575 35.6714
threshold=0.8409944772720338 0.2266509681940079 0.17185288667678836 -0.071504089981317506 0.20564343780279162 -0.10378630086779593 -0.16262605786323545 -0.07672927156090735 0.024793725460767749 -0.58663925528526295 -0.53530392050743092 -0.11557260155677794 0.14668677747249606 0.17797525227069858 1.0000000180025095e-35 -0.066887430846691118 1.5851631164550783 -0.093435104936361299 -0.58350208401679982 -0.75554573535919178 0.21788220852613452 1.3838654160499575 0.37757749855518347 -0.081108976155519472 0.1172071620821953 0.40777516365051275 0.74920064210891735 1.1410515308380129 0.6460876762866975 -0.13622587919235227
decision_type=2 2 2 2 2 2 2 2 2 2 2 2 2 2 2 2 2 2 2 2 2 2 2 2 2 2 2 2 2 2
left_child=1 2 8 6 5 -5 17 -8 9 -1 -11 13 -13 -10 15 16 -2 -4 24 21 22 -16 -21 -24 -3 -6 27 28 -17 -28
right_child=14 18 3 4 25 -7 7 -9 11 10 -12 12 -14 -15 19 26 -18 -19 -20 20 -22 -23 23 -25 -26 -27 29 -29 -30 -31
leaf_value=-0.11766017306070214 0.0072812535382701816 0.0025149535196446453 -0.010021799259442493 0.017780827751858595 0 0.0016738539561478782 -0.025875393812740479 -0.0044845438212260964 0.013338993225330555 -0.022726694958298384 0.00019460984854668286 0.0051376413588738378 -0.0083656845150741014 -0.0046336883297169989 -0.015213053321342956 -0.010255482470694828 0.094457220520554969 0.00062457952556610702 -0.0021841462501625804 -0.040727372179771758 -0.057412327209754296 0.036122469863772592 0.020836161360051782 -0.021205711243698046 0.05244277268662919 -0.010209533288452158 -0.00049238640835083322 0.0093599582556798625 0.016849093517185033 -0.013720122204944736
leaf_weight=52 204 90 1721 1721 1353 6428 1268 2637 665 366 31440 20284 1134 4220 146 1329 31 4904 97 120 143 72 112 162 162 2769 1481 930 226 1669
leaf_count=52 204 90 1721 1721 1353 6428 1268 2637 665 366 31440 20284 1134 4220 146 1329 31 4904 97 120 143 72 112 162 162 2769 1481 930 226 1669
internal_value=0 0.000455345 0.000345474 -0.00202282 0.00103494 0.00514204 -0.00563755 -0.0115693 0.00128323 -0.000261308 -5.21648e-05 0.00317455 0.0043974 -0.00207611 -0.00515458 -0.00327824 0.0211021 -0.0020594 0.0243886 -0.0190246 -0.027456 0 -0.0152037 -0.00204447 0.0367635 -0.00695321 -0.00439125 -1.33879e-05 -0.00596759 -0.00767297
internal_weight=0 81311 80962 22801 12271 8149 10530 3905 58161 31858 31806 26303 21418 4885 6625 5870 235 6625 349 755 537 218 394 274 252 4122 5635 2485 1555 3150
internal_count=87936 81311 80962 22801 12271 8149 10530 3905 58161 31858 31806 26303 21418 4885 6625 5870 235 6625 349 755 537 218 394 274 252 4122 5635 2485 1555 3150
is_linear=0
shrinkage=0.0601563


Tree=18
num_leaves=31
num_cat=0
split_feature=2 29 61 64 5 11 51 2 6 9 49 23 6 61 23 4 6 61 6 20 51 64 31 31 18 5 47 47 47 62
split_gain=47.9506 151.655 87.9418 107.977 66.94 65.4217 56.2984 47.3341 47.2232 60.6645 44.6771 69.1606 68.8536 54.0784 51.6796 45.9252 45.0344 42.6182 42.0023 41.2841 41.2312 39.0531 37.2479 36.8535 66.6013 38.3062 36.8351 31.8719 48.0482 46.1558
threshold=0.14995603263378146 0.62530073523521434 -0.07018787786364554 0.51706850528717052 -0.50509384274482716 0.25248326361179357 -0.063330024480819688 1.5851631164550783 -0.044311897829174988 -0.096362497657537446 -0.46356365084648127 -0.31137366592884058 -0.10359774902462958 -0.25499424338340754 -0.16262605786323545 -0.64030507206916798 1.2750775218009951 -0.21724348515272138 -0.57702654600143422 -0.48440456390380854 -0.073649141937494264 0.36418227851390844 -0.12269344553351401 -0.80746060609817494 -1.0363680124282835 0.70630970597267162 -0.073172934353351579 -0.076662376523017869 -0.048459565266966813 0.59508672356605541
decision_type=2 2 2 2 2 2 2 2 2 2 2 2 2 2 2 2 2 2 2 2 2 2 2 2 2 2 2 2 2 2
left_child=1 4 10 21 6 19 8 27 20 -10 15 17 14 -14 -13 16 -2 18 -12 -6 -1 -4 -21 25 -25 -17 -8 29 -29 -5
right_child=2 -3 3 7 5 -7 26 -9 9 -11 11 12 13 -15 -16 23 -18 -19 -20 22 -22 -23 -24 24 -26 -27 -28 28 -30 -31
leaf_value=-0.036666479706405755 -0.013988853600227686 0.18522231033515474 -0.034230704398344663 0.035850820819759162 -0.011556583194792473 -0.096859707918197965 -0.027256379406524152 0.068464953661823633 -0.0062014913626499552 0.0095341934463207129 0.00249654946979912 0.030762307270299681 -0.022778443396159 0.0076129404200122337 -0.0045386280794994785 0 0.016529660198159907 -0.040135986892319578 -0.011124653987372149 0.013896198635859353 -0.0055796129472540281 -0.091711900734832319 0.0016717223774272364 0.11461751616344078 0.0058472007509298447 -0.023439143095833736 -0.0079922270968873707 -0.035527094720036123 0.044359621343933085 -0.021882483315787928
leaf_weight=249 1429 20 369 136 1026 30 616 39 1923 2499 1228 588 470 557 232 3690 239 204 4465 1157 1175 86 57238 26 5244 340 2282 243 33 103
leaf_count=249 1429 20 369 136 1026 30 616 39 1923 2499 1228 588 470 557 232 3690 239 204 4465 1157 1175 86 57238 26 5244 340 2282 243 33 103
internal_value=0 0.000871963 -0.00287834 -0.0221965 0.000808921 0.00162139 -0.00464615 -0.00120358 -0.000751002 0.00255486 -0.00180438 -0.00571092 0.00539641 -0.00570886 0.0200398 0.000898893 -0.00925417 -0.0092921 -0.00808061 0.00168134 -0.0114399 -0.0464291 0.00192427 0.00278477 0.00649932 -0.00192314 -0.0122955 -0.00765621 -0.023785 0.00844838
internal_weight=0 68215 19721 1009 68195 59451 8744 554 5846 4422 18712 7744 1847 1027 820 10968 1668 5897 5693 59421 1424 455 58395 9300 5270 4030 2898 515 276 239
internal_count=87936 68215 19721 1009 68195 59451 8744 554 5846 4422 18712 7744 1847 1027 820 10968 1668 5897 5693 59421 1424 455 58395 9300 5270 4030 2898 515 276 239
is_linear=0
shrinkage=0.0669922


Tree=19
num_leaves=31
num_cat=0
split_feature=63 1 6 51 60 9 40 2 9 21 40 21 34 62 6 6 27 36 2 18 47 22 18 13 49 30 2 28 18 34
split_gain=45.0768 91.1762 54.3446 47.1399 48.0221 57.2909 53.1294 46.546 97.3638 116.794 92.4937 202.266 111.79 51.3276 60.5863 45.9112 74.2284 46.3154 133.676 44.3914 42.5741 42.1494 51.3567 147.892 65.238 41.9059 41.7277 65.1876 38.3753 60.6529
threshold=-0.10426272451877593 -0.54923820495605458 0.16404864192008975 -0.073649141937494264 2.9993366003036503 -0.072447169572114931 1.0000000180025095e-35 -0.32135319709777826 -0.048558674752712243 -1.0000000180025095e-35 1.9979031682014468 0.27178834378719335 0.18708127737045291 -0.31849750876426691 -0.16789992898702619 0.024793725460767749 -0.58663925528526295 -1.0000000180025095e-35 -0.52030414342880238 0.025819249451160434 -0.046928843483328812 -0.16766575723886487 1.0000000180025095e-35 -0.55664029717445362 1.5534559488296511 -1.1587163209915159 -0.4084417968988418 -0.35038925707340235 0.2728808075189591 -0.36188971996307367
decision_type=2 2 2 2 2 2 2 2 2 2 2 2 2 2 2 2 2 2 2 2 2 2 2 2 2 2 2 2 2 2
left_child=2 -2 3 4 6 -6 -1 8 26 -10 13 12 -12 14 -9 16 -5 20 -19 -8 -17 -4 23 -23 -25 -15 27 -3 29 -24
right_child=1 7 21 15 5 -7 19 10 9 -11 11 -13 -14 25 -16 17 -18 18 -20 -21 -22 22 28 24 -26 -27 -28 -29 -30 -31
leaf_value=0.0059990443420354627 -0.095935850488201108 -0.002310807815310869 -0.013195808155318981 -0.09391738882455028 0 0.099758327589542506 -0.077710865503491072 -0.12056631089788916 -0.17452088918470973 -0.010233380513431742 0.026388109980763255 -0.0014306960541062041 0.24118230021714457 0.021306649240479758 -0.015635459792366958 0.0037831628809149439 -0.0013031633358550046 0.18447018819160496 -0.0019347900945011608 -0.0073837297801511853 -0.007671618138181238 0.13338449639802 0.0050174233230525257 0.023739095702841672 -0.013361722665088661 -0.001411251944973426 -0.018288028054633299 0.069353942152691139 -0.0093661088193201653 -0.0039924124274043713
leaf_weight=10753 38 563 1160 32 48 44 39 24 30 51 24 85 25 299 350 15327 14738 20 30 453 1264 37 4404 399 290 27242 709 50 2178 7230
leaf_count=10753 38 563 1160 32 48 44 39 24 30 51 24 85 25 299 350 15327 14738 20 30 453 1264 37 4404 399 290 27242 709 50 2178 7230
internal_value=0 -0.00190871 0.000997538 0.0021237 0.0054832 0.0497619 0.00507221 -0.00176871 -0.0125831 -0.0778806 -0.00120831 0.0488965 0.147232 -0.00146845 -0.0238424 0.000893807 -0.00154106 0.00308769 0.0618388 -0.0140743 0.00287757 -0.00203443 -0.00110629 0.0145161 0.00733193 -0.00114477 -0.00816691 0.00265004 -0.00196699 -0.000534887
internal_weight=0 29490 58446 42748 11337 92 11245 29452 1403 81 28049 134 49 27915 374 31411 14770 16641 50 492 16591 15698 14538 726 689 27541 1322 613 13812 11634
internal_count=87936 29490 58446 42748 11337 92 11245 29452 1403 81 28049 134 49 27915 374 31411 14770 16641 50 492 16591 15698 14538 726 689 27541 1322 613 13812 11634
is_linear=0
shrinkage=0.0606061


Tree=20
num_leaves=31
num_cat=0
split_feature=63 27 61 6 38 5 51 5 50 17 30 9 20 64 50 47 40 6 19 30 7 22 5 60 36 62 6 4 22 40
split_gain=52.6744 123.203 122.18 61.6869 61.0666 91.4362 46.7163 98.5244 69.8157 78.3499 53.562 50.0086 44.6345 38.7777 38.5452 38.4618 60.6813 293.496 61.3949 58.9321 32.8572 23.3802 31.9215 52.159 50.5508 25.9116 22.9332 21.2019 32.5731 26.3679
threshold=-0.090786203742027269 -0.4733020663261413 0.44131191074848181 0.2388260290026665 -1.0487356781959531 -0.19664450734853742 -0.066951654851436601 -0.56376519799232472 -0.025056922808289524 0.27530950307846075 0.36523048579692846 -0.073503833264112459 -0.41302764415740961 -0.34610871970653528 -0.45932571589946741 -0.10291383787989615 0.052423791959881789 0.82553920149803173 0.0382143221795559 -2.9546034336090083 0.43301847577095037 -0.17909070849418637 1.0768688917160036 1.0000000180025095e-35 -0.10601613298058508 0.19888058304786685 -0.29878558218479151 1.2413423061370852 -0.14379293471574781 -1.0000000180025095e-35
decision_type=2 2 2 2 2 2 2 2 2 2 2 2 2 2 2 2 2 2 2 2 2 2 2 2 2 2 2 2 2 2
left_child=3 2 -2 6 5 26 10 13 9 -9 12 20 -1 -8 -14 19 18 -18 -17 -6 -12 -5 27 24 -24 -25 -3 29 -29 -23
right_child=1 4 -4 21 15 -7 7 8 -10 -11 11 -13 14 -15 -16 16 17 -19 -20 -21 -22 22 23 25 -26 -27 -28 28 -30 -31
leaf_value=-0.0018621734438705436 -0.058765988276246933 -0.028114840312570256 0 -0.011292831125907295 -0.031699430857249147 -0.057724952473587582 -0.0059506410907909585 0.0017515289133494757 -0.0048635971285983341 -0.0015260203004959804 0.0029302432225496245 -0.0025672841927620905 0.0030438432373741729 0 0.00073396733952074049 -0.00051269992280782606 -0.00064318711714684326 0.028571953814694739 -0.014733206211526012 -0.0030422245920119621 0.0079777535257417789 -0.001790069485920291 0.010473244129605689 0.013915062894380048 -0.009224143023181022 -0.0036782209876284927 -0.0026430594197441636 -0.0026361405914986382 -0.016685368249650952 0.0047778734096814868
leaf_weight=2664 36 24 30 126 38 21 1849 12022 1156 5084 1951 490 4403 727 21423 24712 878 207 152 1756 1122 5381 90 227 195 30 181 414 121 305
leaf_count=2664 36 24 30 126 38 21 1849 12022 1156 5084 1951 490 4403 727 21423 24712 878 207 152 1756 1122 5381 90 227 195 30 181 414 121 305
internal_value=0 -0.000782443 -0.0311673 0.00038492 -0.000703536 -0.012253 0.000645239 -0.000165472 0.000398424 0.000765729 0.00117853 0.00376374 0.000848194 -0.00424066 0.00113552 -0.000602221 -0.000376082 0.00474731 -0.000607707 -0.00376158 0.00483835 -0.00158467 -0.00137414 0.00367647 -0.00230154 0.011083 -0.00660662 -0.00184635 -0.00618869 -0.00140255
internal_weight=0 28035 66 59780 27969 226 52891 20838 18262 17106 32053 3563 28490 2576 25826 27743 25949 1085 24864 1794 3073 6889 6763 542 285 257 205 6221 535 5686
internal_count=87815 28035 66 59780 27969 226 52891 20838 18262 17106 32053 3563 28490 2576 25826 27743 25949 1085 24864 1794 3073 6889 6763 542 285 257 205 6221 535 5686
is_linear=0
shrinkage=0.0222222


Tree=21
num_leaves=31
num_cat=0
split_feature=2 5 51 5 23 49 16 9 7 21 6 19 16 5 49 59 5 6 63 22 6 17 19 4 19 51 9 38 32 18
split_gain=42.6863 42.7797 58.3477 49.5345 44.0914 324.107 209.371 169.687 126.909 79.1596 71.7735 90.9708 48.7847 43.4454 200.105 49.5022 41.9675 39.0591 50.0805 35.7707 40.2334 52.9636 34.2502 45.4563 27.2761 25.378 23.5309 23.0259 22.8253 22.2544
threshold=0.85643193125724804 -0.50509384274482716 -0.071137927472591386 -0.58828753232955922 -0.49953880906105036 1.5534559488296511 0.032398335635662086 -0.048558674752712243 -0.32161477208137507 0.71898069977760326 -1.8924363851547239 -0.3848928958177566 0.31923343241214758 1.3968366384506228 1.0070224404335024 1.0000000180025095e-35 -0.026952821761369702 -0.044311897829174988 -0.18735779821872708 1.3736920952796938 -0.20390616357326505 -2.9988555908203121 -0.33708827197551722 0.44650423526763922 -0.41325660049915308 -0.092667479068040834 -0.085581105202436433 2.4065614938735966 0.33041951060295111 0.21165126562118533
decision_type=2 2 2 2 2 2 2 2 2 2 2 2 2 2 2 2 2 2 2 2 2 2 2 2 2 2 2 2 2 2
left_child=1 2 3 17 5 6 8 -8 -3 13 11 -11 -12 15 -15 -6 19 18 -1 24 -21 -22 23 26 -2 -26 -18 -27 -28 -5
right_child=16 4 -4 29 9 -7 7 -9 -10 10 12 -13 -14 14 -16 -17 22 -19 -20 20 21 -23 -24 -25 25 27 28 -29 -30 -31
leaf_value=0.010651179876779349 -0.0087322697157260799 0.018273379837404666 -0.0037521471919814767 -0.0055440892308281304 0 0.10655459903438655 0 -0.093155263098825783 0.0016623127937350254 0.045403306015783573 -0.0027313339873519865 0 -0.014193584006076501 0.023160516659646115 0 0.0030846899992325837 0.017893143012736642 0.010349516834069289 -0.021771812056698897 0 0 0.033913630072453571 -0.009551453758884311 0.032298490739202858 -0.010228998512055096 0.0027991933887715312 0.0071649233818472796 -0.0064343690675516523 -0.0048981607524180432 0.0010040089709709469
leaf_weight=87 426 506 6011 775 44188 31 49 43 10823 71 7147 107 425 492 1773 6181 49 863 99 257 72 113 1176 37 221 1777 160 321 1901 1634
leaf_count=87 426 506 6011 775 44188 31 49 43 10823 71 7147 107 425 492 1773 6181 49 863 99 257 72 113 1176 37 221 1777 160 321 1901 1634
internal_value=0 0.000212816 -0.0018183 0.00145935 0.000484588 0.00232079 0.00201199 -0.0462733 0.00242993 0.000131537 -0.00290521 0.0170652 -0.00341311 0.000584194 0.00496425 0.000381464 -0.00250099 0.00734268 -0.00504737 5.37377e-05 0.00865222 0.0201236 -0.00503847 -0.00243117 -0.00122519 2.88624e-05 -0.00317848 0.00124797 -0.0038207 -0.00098217
internal_weight=0 81305 9469 3458 71836 11452 11421 92 11329 60384 7750 178 7572 52634 2265 50369 6510 1049 186 3187 442 185 3323 2147 2745 2319 2110 2098 2061 2409
internal_count=87815 81305 9469 3458 71836 11452 11421 92 11329 60384 7750 178 7572 52634 2265 50369 6510 1049 186 3187 442 185 3323 2147 2745 2319 2110 2098 2061 2409
is_linear=0
shrinkage=0.0322499


Tree=22
num_leaves=31
num_cat=0
split_feature=30 22 20 36 4 23 24 61 6 36 23 5 21 64 38 46 49 49 6 5 6 9 32 51 5 51 40 59 40 5
split_gain=36.3822 85.2827 62.7265 97.7585 156.038 94.8406 80.4046 72.3934 116.335 76.112 68.4431 51.7508 39.8193 64.0643 101.294 82.2957 157.575 60.9105 53.6596 45.2332 43.2519 77.4401 42.9105 40.0295 35.6365 69.7276 61.8651 34.5304 73.6897 39.6063
threshold=-1.6842811703681944 -0.17909070849418637 0.47604128718376165 -0.069577172398567186 0.44650423526763922 -0.1873175650835037 -0.49918100237846369 0.28934727609157568 0.22819068282842639 -0.10601613298058508 1.0000000180025095e-35 -1.0000000180025095e-35 0.71898069977760326 0.11576790362596513 0.050396010279655463 0.017742533236742023 -0.28243663907051081 -0.47104951739311213 1.2750775218009951 -0.50509384274482716 -0.086107473820447908 -0.10256390273571013 0.34089751541614538 -0.080159891396760927 0.70630970597267162 -0.065261144191026674 -0.15492226183414456 1.0000000180025095e-35 -0.12567847967147824 1.3968366384506228
decision_type=2 2 2 2 2 2 2 2 2 2 2 2 2 2 2 2 2 2 2 2 2 2 2 2 2 2 2 2 2 2
left_child=1 11 3 7 10 -4 -6 8 -3 -9 -5 -1 13 19 15 16 -15 24 22 20 -2 -22 -16 -17 -14 -26 -27 29 -29 -21
right_child=12 2 5 4 6 -7 -8 9 -10 -11 -12 -13 17 14 18 23 -18 -19 -20 27 21 -23 -24 -25 25 26 -28 28 -30 -31
leaf_value=0 -0.013046055936523771 -0.00021038585498772805 -0.10236702341776804 -0.028049908975335609 -0.0034175546107147277 0.0015851575599963635 0.069770237374745414 0.0037892364377124736 0.08923072804358681 -0.027504744295658967 0.03809232547947982 -0.091796561726799258 0.0019696283507368998 0.0078267156107064331 -0.041838719868343588 0 0.17328753444109157 -0.0057406570727947769 0.030495300971189229 0.00046110070202460434 -0.0090297036642634932 0.0040795173744487606 0.037029295563554152 0.026964024747614272 0.048168599589955362 0 -0.046182872651228377 0.020191113939569603 0.0024811030760028595 0.011207115894331886
leaf_weight=46 1520 417 62 232 59 53 228 408 63 901 77 73 9759 66 212 392 41 9654 61 47408 2994 4129 23 598 53 181 234 1124 5373 1374
leaf_count=46 1520 417 62 232 59 53 228 408 63 901 77 73 9759 66 212 392 41 9654 61 47408 2994 4129 23 598 53 181 234 1124 5373 1374
internal_value=0 -0.00720177 -0.00450837 -0.0020978 0.0194201 -0.0496113 0.0527758 -0.00957977 0.0103703 -0.0173232 -0.00975236 -0.0590563 0.000243179 0.000991244 0.0142125 0.0231488 0.0765101 -0.00218626 -0.0170128 0.000694352 -0.00347349 -0.00135207 -0.031731 0.0168122 0.00111424 -0.0155247 -0.0250131 0.00135614 0.00563131 0.000775265
internal_weight=0 2619 2500 2385 596 115 287 1789 480 1309 309 119 85196 65315 1393 1097 107 19881 296 63922 8643 7123 235 990 10227 468 415 55279 6497 48782
internal_count=87815 2619 2500 2385 596 115 287 1789 480 1309 309 119 85196 65315 1393 1097 107 19881 296 63922 8643 7123 235 990 10227 468 415 55279 6497 48782
is_linear=0
shrinkage=0.0622222


Tree=23
num_leaves=31
num_cat=0
split_feature=7 6 2 9 40 49 44 9 5 6 46 47 18 34 18 21 64 38 9 6 36 32 19 9 21 51 47 19 20 27
split_gain=33.5767 91.5329 173.455 59.8128 54.1493 182.517 58.2605 43.5378 35.4483 39.1096 41.0484 40.3119 31.0321 40.4699 82.3891 76.0801 67.8641 55.7517 55.5404 55.3438 48.9425 34.9338 148.513 92.0541 86.4018 55.4142 29.4191 28.7487 17.0202 15.8852
threshold=-2.9992727041244502 0.82553920149803173 -0.24501633644104001 1.0000000180025095e-35 0.052423791959881789 1.0070224404335024 -0.48380409181118006 0.093842819333076491 1.0000000180025095e-35 0.29084445536136633 1.0000000180025095e-35 -0.078616473823785768 0.33226591348648077 -0.31466135382652277 0.15416087955236438 -0.17425230145454404 -0.58357581496238697 1.2888884544372561 -0.11760473251342772 -0.10359774902462958 -0.1534846946597099 -0.39393728971481318 2.9994077682495122 -0.085581105202436433 -1.1758524775505064 -0.059072745963931077 -0.063829168677330003 -0.30476020276546473 -0.090342830866575227 0.089843053370714201
decision_type=2 2 2 2 2 2 2 2 2 2 2 2 2 2 2 2 2 2 2 2 2 2 2 2 2 2 2 2 2 2
left_child=1 8 3 -3 6 -6 -4 -7 -1 10 11 -10 13 14 16 19 17 -2 -17 -16 -18 23 26 24 -15 -25 -23 -8 -11 -12
right_child=12 2 4 -5 5 7 27 -9 9 28 29 -13 -14 21 15 18 20 -19 -20 -21 -22 22 -24 25 -26 -27 -28 -29 -30 -31
leaf_value=-0.065780332145271722 -0.17962614305889613 0.2626995260869549 0.091345589698576701 0.020417447170166799 0.23430168487029773 -0.05219686967985207 0 0.06937360232959372 0.028109301654261225 -0.085436866588812083 0 -0.015199852323980932 -0.012280265904837939 0.057166934111128546 -0.01689689281817534 -0.0047039888113779805 0.052868825217331578 -0.0017055647980464728 0.015410941198983698 0.00020794950110870143 0.013178635077047609 0.001230952277678124 0.18779399113893097 0.012715584313182787 -0.037710160901329087 -0.042654337443627267 -0.002764939203949145 -0.06214728676110802 -0.027711184393449422 -0.064785752181247713
leaf_weight=137 21 26 25 20 28 58 86 30 262 68 41 333 1346 66 1395 1199 247 52 3847 21322 3527 27403 29 922 898 142 23798 129 259 99
leaf_count=137 21 26 25 20 28 58 86 30 262 68 41 333 1346 66 1395 1199 247 52 3847 21322 3527 27403 29 922 898 142 23798 129 259 99
internal_value=0 -0.0119249 0.0215194 0.173783 0 0.0484861 -0.0207358 -0.00221864 -0.023764 -0.0176348 -0.00576346 0.00261109 0.000253603 0.000461234 0.0028292 0.00121594 0.0142767 -0.0632431 0.0104827 -0.000809441 0.0159757 -0.000930137 -0.000490199 -0.0116735 -0.0304338 0.00461948 -0.000611673 -0.0372743 -0.0420198 -0.0466988
internal_weight=0 1601 402 46 356 116 240 88 1199 1062 735 595 86214 84868 31610 27763 3847 73 5046 22717 3774 53258 51230 2028 964 1064 51201 215 327 140
internal_count=87815 1601 402 46 356 116 240 88 1199 1062 735 595 86214 84868 31610 27763 3847 73 5046 22717 3774 53258 51230 2028 964 1064 51201 215 327 140
is_linear=0
shrinkage=0.0833333


Tree=24
num_leaves=31
num_cat=0
split_feature=30 9 9 6 5 2 54 61 41 38 5 63 38 31 47 10 5 63 30 40 46 50 5 5 31 5 6 47 6 31
split_gain=34.3606 80.7154 62.3409 52.4137 51.6364 40.9586 106.277 73.1331 61.0727 50.1229 46.2845 43.0149 92.98 47.0824 31.5571 31.3985 54.5547 37.5267 30.6601 31.8576 29.4131 28.4911 28.1819 31.7081 33.4728 30.6114 26.6816 25.0918 24.1798 23.3294
threshold=0.40437118709087377 -0.081989124417304979 -0.11760473251342772 0.82553920149803173 2.9993865489959721 0.14995603263378146 0.517632156610489 -0.07018787786364554 -0.65162014961242665 1.1747028231620791 -0.50509384274482716 0.99038237333297741 -0.33680322766304011 -0.12269344553351401 -0.048459565266966813 2.7912788391113286 0.40606118738651281 0.021419895812869075 -0.12306641042232512 -0.16792549192905423 -0.56774690747261036 0.38926780223846441 2.9993865489959721 -0.11282371729612349 -0.18355095386505124 0.40606118738651281 -0.044311897829174988 -0.069780196994543062 0.041736386716365821 -0.15386558324098584
decision_type=2 2 2 2 2 2 2 2 2 2 2 2 2 2 2 2 2 2 2 2 2 2 2 2 2 2 2 2 2 2
left_child=5 2 -2 27 15 6 10 22 9 -9 18 13 -13 -12 -11 17 -17 -3 19 -1 -6 -5 23 24 -7 -25 -20 -4 -10 -30
right_child=1 4 3 21 20 7 -8 8 28 14 11 12 -14 -15 -16 16 -18 -19 26 -21 -22 -23 -24 25 -26 -27 -28 -29 29 -31
leaf_value=0 -0.0098068135998714695 -0.0069955172124342279 0.0052841544088854039 0.020945418578570876 0 0.0024205182464820097 0.12829006044440486 0.040665233657620412 -0.014348025016035468 -0.018674268899003744 0.013477550257114687 0.041284772777749647 -0.046436051798223521 0.00062222861233466708 0.042490252468663822 0.03633889696152693 -0.032168854566734177 0.0026831300912273908 -0.0086500656957426338 -0.017244778379548926 0.059250825077677441 0.1059566448396147 0.034299075802911784 -0.0081866163843987219 -0.0088858359355414307 -5.4574062561332372e-05 0.00018691098200474964 0.014177142506127907 -0.052572486792746231 0
leaf_weight=492 567 2369 2785 64 29 5444 22 71 188 327 993 48 172 53419 27 40 256 3122 1554 1060 73 31 70 4257 1059 2709 4190 2113 241 23
leaf_count=492 567 2369 2785 64 29 5444 22 71 188 327 993 48 172 53419 27 40 256 3122 1554 1060 73 31 70 4257 1059 2709 4190 2113 241 23
internal_value=0 0.00299907 0.00805644 0.0101902 -0.00168663 -0.000427543 0.000216214 -0.00323037 -0.0196284 -0.00239688 0.000162134 0.000753077 -0.0249061 0.000866495 -0.012521 -0.00249736 -0.0211331 -0.00139698 -0.00419083 -0.0115441 0.0391441 0.0542505 -0.00212933 -0.00235776 0.000498517 -0.00509954 -0.00211253 0.00922789 -0.0346672 -0.0471432
internal_weight=0 11449 5560 4993 5889 76366 61950 14416 877 425 61928 54632 220 54412 354 5787 296 5491 7296 1552 102 95 13539 13469 6503 6966 5744 4898 452 264
internal_count=87815 11449 5560 4993 5889 76366 61950 14416 877 425 61928 54632 220 54412 354 5787 296 5491 7296 1552 102 95 13539 13469 6503 6966 5744 4898 452 264
is_linear=0
shrinkage=0.0583333


Tree=25
num_leaves=31
num_cat=0
split_feature=49 23 5 30 29 61 38 7 30 9 36 63 18 61 6 51 63 16 6 51 21 5 13 23 44 46 59 63 61 44
split_gain=29.7102 45.7474 105.639 135.016 36.4929 43.9371 60.7696 58.3053 41.9519 44.9068 49.7331 38.172 33.4675 29.5896 29.4715 53.3074 39.7404 24.8589 23.8208 34.7025 27.3582 12.9357 21.574 12.3364 11.3774 11.0835 10.8561 10.5166 10.316 10.2917
threshold=-0.6060563027858733 -0.69664886593818653 0.086623623967170729 0.20465237647295001 0.97294738888740551 0.28934727609157568 2.0118032693862919 -0.76500642299652089 0.44532226026058203 -0.085581105202436433 -0.11376612260937689 1.4104493856430056 0.17797525227069858 0.36239035427570349 0.17185288667678836 -0.071504089981317506 -0.060905383899807923 -0.5455740988254546 1.2750775218009951 0.34957204759120947 1.6449161171913149 -0.58828753232955922 -0.20004925876855847 -0.69664886593818653 0.1625362113118172 -0.71132513880729664 -0.74769195914268483 0.30166184902191168 -0.63917183876037587 0.51198953390121471
decision_type=2 2 2 2 2 2 2 2 2 2 2 2 2 2 2 2 2 2 2 2 2 2 2 2 2 2 2 2 2 2
left_child=18 2 24 -4 8 7 13 17 14 10 -10 -9 -11 -7 16 -16 -3 -6 21 20 28 22 -1 26 -2 -21 -23 -25 -20 -8
right_child=1 4 3 -5 5 6 29 11 9 12 -12 -13 -14 -15 15 -17 -18 -19 19 25 -22 23 -24 27 -26 -27 -28 -29 -30 -31
leaf_value=-0.011014533195508722 0.015175071690133558 0.0019846766149252486 0.26337859965740185 0.018096669242627747 0.0091225644183780801 0.15939530572155902 0 0.0013990802244594415 -0.0075977696340969588 0.0048411563984845449 0.016433400621691137 -0.016122973541744245 -0.013973813954186244 0.029078975411575704 -0.006093759208785631 0.0012438576074262743 -0.002950286536897283 -0.029911587747038462 0 0 -0.047522904293238993 0.0035015151864025837 0.0089184921148542633 -0.0095363596237365011 -0.0046138595384497671 0.07045736363238353 -0.018271836880650656 0.0028247379173111029 0.035864315786600647 -0.048001892725733478
leaf_weight=572 449 41909 21 43 70 23 27 2283 510 1581 2635 895 724 45 10034 10713 10787 729 87 31 54 81 566 1043 169 59 1111 454 60 27
leaf_count=572 449 41909 21 43 70 23 27 2283 510 1581 2635 895 724 45 10034 10713 10787 729 87 31 54 81 566 1043 169 59 1111 454 60 27
internal_value=0 0.000311785 0.019078 0.108942 0.000149672 -0.00652949 0.0354848 -0.00798334 0.000504998 0.00666222 0.0123283 -0.00332976 -0.000784835 0.0828599 3.91719e-05 -0.00227334 0.000962055 -0.0256723 -0.00601548 0.0132378 -0.000437901 -0.00765066 -0.000525465 -0.0104226 0.00870455 0.0510321 -0.0162431 -0.00535038 0.0124177 -0.0120842
internal_weight=0 83674 682 64 82992 4099 122 3977 78893 5450 3145 3178 2305 68 73443 20747 52696 799 4118 291 201 3827 1138 2689 618 90 1192 1497 147 54
internal_count=87792 83674 682 64 82992 4099 122 3977 78893 5450 3145 3178 2305 68 73443 20747 52696 799 4118 291 201 3827 1138 2689 618 90 1192 1497 147 54
is_linear=0
shrinkage=0.0727273


Tree=26
num_leaves=31
num_cat=0
split_feature=30 20 23 23 4 0 9 36 7 63 36 20 49 23 5 30 10 5 59 47 2 18 50 63 5 5 62 59 51 44
split_gain=27.6351 83.4684 172.759 71.5139 132.435 90.8878 52.1084 45.4166 37.1976 74.2234 32.6287 28.6984 27.7499 38.0615 105.244 119.253 36.3655 58.9267 35.3285 27.7181 26.877 25.7065 24.1472 21.4542 17.3178 16.138 13.9255 11.5481 11.4242 9.59536
threshold=-2.9546034336090083 0.18678274005651477 -0.0378907062113285 -0.48975995182991022 -0.12493662536144255 -0.5350247025489806 -0.068852469325065599 -0.10601613298058508 -1.279520511627197 -0.14759576320648191 -0.058368772268295281 -0.48440456390380854 -0.6060563027858733 -0.69664886593818653 0.086623623967170729 0.23545087873935702 0.62780398130416881 1.9047875404357912 -0.74769195914268483 -0.092366293072700487 -0.44364278018474573 0.11560248211026193 -0.48545452952384943 0.14887128770351413 -0.21050407737493512 -0.40986606478691096 0.73783794045448314 -0.124433446675539 -0.07672927156090735 0.1625362113118172
decision_type=2 2 2 2 2 2 2 2 2 2 2 2 2 2 2 2 2 2 2 2 2 2 2 2 2 2 2 2 2 2
left_child=1 3 19 4 -1 -6 7 22 9 -8 -10 -2 24 14 29 -16 17 -15 -18 -3 -21 -9 -5 -4 25 -13 28 -28 -26 -14
right_child=11 2 23 6 5 -7 8 21 10 -11 -12 12 13 16 15 -17 18 -19 -20 20 -22 -23 -24 -25 26 -27 27 -29 -30 -31
leaf_value=-0.0083398254001200139 -0.0071149768631955579 -0.13423314490116584 0 -0.0059776025735740991 0.010185242235552124 0.17326335815829982 0.093093852151218667 -0.027341836702158815 0.040336827960819888 0 -0.032602338307471147 -0.0030931052754366709 0.0095634580141563605 0.00045153401752961086 0.16717849251634384 0.0062818059881169994 -0.025804020192262335 0.012948049093353878 -0.0029104308116896585 0 -0.081284845134246803 -0.0046074701265352239 0.023146241259830967 0.055231652556611055 0 -0.011589990140719294 0.022425730345122713 -0.006484158096927351 0.014177297072315596 -0.0028549194895392139
leaf_weight=55 1345 36 43 152 24 23 39 376 22 38 43 2205 439 74653 23 36 182 959 4584 20 27 267 114 21 221 879 32 473 292 169
leaf_count=55 1345 36 43 152 24 23 39 376 22 38 43 2205 439 74653 23 36 182 959 4584 20 27 267 114 21 221 879 32 473 292 169
internal_value=0 -0.00722334 -0.0428884 -0.00228434 0.0370364 0.099653 -0.00653016 -0.011255 0.0205411 0.0445421 -0.000985451 0.000120685 0.00024027 0.000448308 0.0123621 0.0767134 0.000343838 0.000615989 -0.00387935 -0.0912688 -0.048688 -0.0186025 0.00481464 0.0128514 -0.00376028 -0.00566094 0.0015557 -0.0037592 0.00766469 0.00537162
internal_weight=0 1300 147 1153 102 47 1051 909 142 77 65 86492 85147 81045 667 59 80378 75612 4766 83 47 643 266 64 4102 3084 1018 505 513 608
internal_count=87792 1300 147 1153 102 47 1051 909 142 77 65 86492 85147 81045 667 59 80378 75612 4766 83 47 643 266 64 4102 3084 1018 505 513 608
is_linear=0
shrinkage=0.05


Tree=27
num_leaves=31
num_cat=0
split_feature=16 51 36 21 9 9 50 7 16 2 32 47 49 9 51 9 30 51 5 36 11 38 21 50 18 24 5 38 61 48
split_gain=25.9451 141.547 132.652 87.3782 69.9685 69.8488 54.9438 59.4999 56.9574 44.418 89.2473 43.3613 39.6875 69.8666 39.184 37.3101 31.3122 56.0298 36.6955 316.263 74.6321 47.4632 36.1282 94.1472 66.3639 26.4598 23.4705 20.9616 20.7206 20.0885
threshold=0.99096935987472545 -0.076330423355102525 -0.058368772268295281 -0.78197121620178212 0.093842819333076491 -0.095288060605525957 -0.43031556904315943 -2.9992727041244502 2.0502194166183476 -0.54167589545249928 -1.8763545751571653 -0.090735178440809236 1.5534559488296511 -0.077338155359029756 -0.078132901340723024 -0.057826854288578027 0.55134552717208873 -0.067493863403797136 1.9047875404357912 -0.095661908388137804 0.021777439862489704 -0.61927565932273854 1.0745673179626467 0.57273790240287792 -0.14536716043949124 -0.43334928154945368 0.3344265222549439 -0.5310412049293517 -0.41893514990806574 -0.046323686838150017
decision_type=2 2 2 2 2 2 2 2 2 2 2 2 2 2 2 2 2 2 2 2 2 2 2 2 2 2 2 2 2 2
left_child=12 4 3 6 11 -4 7 -3 -8 -7 -11 14 16 -14 29 25 18 -18 22 21 -21 -20 24 -24 -1 -5 -19 -17 -28 -2
right_child=1 2 5 15 -6 9 8 -9 -10 10 -12 -13 13 -15 -16 27 17 26 19 20 -22 -23 23 -25 -26 -27 28 -29 -30 -31
leaf_value=0.012633616027002297 -0.061290493738699159 -0.052368959523652905 0.15099089153536269 -0.0060387116027163252 0.042879921061083494 -0.0016078732406132341 0 0.0019267953750399527 0.066158653915894372 0.1326901159255254 0.022696696966336784 -0.060402508961093879 0.15907409972312844 0 0.035567465080683987 0.066758390614848409 0.023411717230693914 0.0047350062538635881 0.21176769606570869 0.052970380710004088 -0.0020636615829193049 0.054441803339909361 -0.022362674104832805 -0.0014163896108562576 4.4636453050119377e-05 -0.021889400496725796 -0.028484646654091051 0 0.0078477175375435866 -0.0010638491079316167
leaf_weight=1992 68 96 22 918 39 203 107 2939 123 41 417 320 20 21 44 35 748 1248 39 125 1099 28 1147 7851 66222 1455 211 61 76 77
leaf_count=1992 68 96 22 918 39 203 107 2939 123 41 417 320 20 21 44 35 748 1248 39 125 1099 28 1147 7851 66222 1455 211 61 76 77
internal_value=0 -0.00396365 -0.00103669 -0.00449772 -0.0371196 0.0271233 0.00263424 7.18218e-06 0.0346359 0.0220651 0.0338908 -0.0444533 0.000355249 0.0671739 -0.0142081 -0.0141764 0.000313731 0.00815528 7.7896e-05 0.0114354 0.00305933 0.155223 -0.000104096 -0.0041545 0.00042123 -0.0160153 0.000322243 0.024902 -0.0167349 -0.0335326
internal_weight=0 6965 6417 5734 548 683 3265 3035 230 661 458 509 80827 41 189 2469 80786 2283 78503 1291 1224 67 77212 8998 68214 2373 1535 96 287 145
internal_count=87792 6965 6417 5734 548 683 3265 3035 230 661 458 509 80827 41 189 2469 80786 2283 78503 1291 1224 67 77212 8998 68214 2373 1535 96 287 145
is_linear=0
shrinkage=0.0679012


Tree=28
num_leaves=31
num_cat=0
split_feature=30 6 16 4 11 23 23 20 36 5 34 20 21 6 16 4 36 36 0 51 1 50 11 51 36 6 38 6 49 50
split_gain=22.5064 74.1474 57.517 135.661 121.591 49.0973 40.0566 130.11 61.0463 52.0251 34.8595 23.3532 24.9781 52.2803 50.9056 75.4909 134.036 70.2432 113.356 78.9583 68.3299 45.4235 62.5428 39.8605 20.6759 23.3829 15.1952 9.6924 6.80947 6.66774
threshold=-2.9546034336090083 -0.14297632873058316 1.0000000180025095e-35 -0.12493662536144255 -0.40975093841552729 0.4079608023166657 -0.40178978443145746 0.047465877607464797 -0.068177565932273851 0.58605295419693004 -0.2519852072000503 -0.48440456390380854 -0.78197121620178212 -0.044311897829174988 0.99096935987472545 0.53507232666015636 -0.10888848826289176 -0.058368772268295281 -0.30562931299209589 -0.076330423355102525 -0.58814227581024159 -0.46778713166713709 -0.47446902096271509 -0.06024710834026336 -0.10888848826289176 -0.20390616357326505 1.1747028231620791 0.11177063733339311 0.70891702175140392 -0.46778713166713709
decision_type=2 2 2 2 2 2 2 2 2 2 2 2 2 2 2 2 2 2 2 2 2 2 2 2 2 2 2 2 2 2
left_child=1 5 3 27 -5 26 7 -4 10 -10 -8 -2 13 24 15 20 -17 19 -19 -16 -14 23 -23 -15 29 -26 -1 -3 -6 -13
right_child=11 2 6 4 28 -7 8 -9 9 -11 -12 12 14 21 17 16 -18 18 -20 -21 -22 22 -24 -25 25 -27 -28 -29 -30 -31
leaf_value=-0.084173032410309379 -0.0060502216731096346 0 0.035914007323270408 0.16962111774755981 0 0 0.00052500740512987504 -0.098179205521789714 -0.0004911291043930518 0.045995544330810718 -0.018490327580868292 0 -0.078122716639876078 0.0024627372626971839 -0.042069576204102628 0.027682167128566717 0.0018374966780926576 0.04309796777072239 -0.0031183340538188543 -0.0076749841914088915 -0.00019667589022971766 0.027234702070190402 0.0052417393165791609 -0.0053519296830822054 -0.031325900195186683 -0.0030106307867986508 -0.0052713667188207369 -0.024816897119112197 0.037786712185746738 -0.041878416859566746
leaf_weight=49 1345 67 21 22 22 22 313 40 95 87 478 21 25 9097 169 595 1953 149 506 1995 63613 329 3407 1702 73 1463 20 43 21 50
leaf_count=49 1345 67 21 22 22 22 313 40 95 87 478 21 25 9097 169 595 1953 149 506 1995 63613 329 3407 1702 73 1463 20 43 21 50
internal_value=0 -0.00614593 -0.00268256 0.0217189 0.0763402 -0.0474726 -0.00722356 -0.0450746 -0.00441234 0.0194065 -0.01043 0.000102905 0.000205088 0.00187686 -0.000179835 7.80917e-05 0.00803959 -0.00638598 0.00674976 -0.010558 -0.000234017 0.00278906 0.00729239 0.00119178 -0.00610959 -0.00463354 -0.067468 -0.00672204 0.0186179 -0.0320448
internal_weight=0 1300 1209 175 65 91 1034 61 973 182 791 86492 85147 16142 69005 66186 2548 2819 655 2164 63638 14535 3736 10799 1607 1536 69 110 43 71
internal_count=87792 1300 1209 175 65 91 1034 61 973 182 791 86492 85147 16142 69005 66186 2548 2819 655 2164 63638 14535 3736 10799 1607 1536 69 110 43 71
is_linear=0
shrinkage=0.0471429


Tree=29
num_leaves=31
num_cat=0
split_feature=30 9 9 5 6 54 49 8 40 51 5 44 38 18 17 51 11 31 5 51 6 36 30 40 63 36 62 62 6 62
split_gain=22.5104 52.3397 53.397 51.8543 43.1423 31.1007 52.5863 61.6266 86.5575 36.3364 31.4047 32.4539 27.9127 29.5447 30.4013 27.6775 26.7168 26.4392 34.2617 27.7504 25.9628 38.5194 25.6066 39.4187 40.5748 34.0981 23.8939 23.6163 23.0592 30.7579
threshold=0.37666778266429907 -0.081989124417304979 -0.11760473251342772 2.9993865489959721 0.82553920149803173 0.36498676240444189 -0.46356365084648127 0.52217936515808117 0.052423791959881789 -0.085551004856824861 -0.47899603843688959 0.70443853735923778 2.4065614938735966 -1.0363680124282835 0.4976355135440827 -0.075239393860101686 0.41999629139900213 -0.80746060609817494 0.70630970597267162 -0.066091831773519502 -0.12206687405705451 -0.076276194304227815 1.0000000180025095e-35 -0.16471680998802182 -0.076205305755138383 -0.12212199717760085 -2.932928085327148 0.54072856903076183 -0.57702654600143422 0.19888058304786685
decision_type=2 2 2 2 2 2 2 2 2 2 2 2 2 2 2 2 2 2 2 2 2 2 2 2 2 2 2 2 2 2
left_child=5 2 -2 15 26 10 17 -8 9 -9 22 28 13 14 -5 -3 -6 19 27 -7 -13 -22 23 -1 -25 -24 -4 -19 29 -12
right_child=1 3 4 12 16 6 7 8 -10 -11 11 20 -14 -15 -16 -17 -18 18 -20 -21 21 -23 25 24 -26 -27 -28 -29 -30 -31
leaf_value=0.001362415027167909 -0.0058997848670989889 0.0025599524803721204 -0.01712632275750221 0.078643586739714361 0.011722321908535824 -0.0072293702115348805 -0.014683288305406019 0.0044010369052826168 0.061775876546333541 -0.0066630069684887987 0.027499561330863315 -0.0020005981289200085 -0.00035514316641862729 0 0 -0.0032465576723621258 0.069046834799752335 0.0089168697658019002 0.057253914727934153 0.0014962095286961978 0.0017908742491102038 0.0084471941409465321 -0.0058370079687667118 -0.007827707422574371 -0.043112956368042493 0.0010401030953232598 0.0054932062990374567 -0.00042496469156627458 -0.00023713518201813884 0.0031430943394569278
leaf_weight=873 800 2097 79 40 70 1198 1169 698 37 2059 115 1790 26 33 24 4957 33 816 23 1395 6442 2233 1798 1800 68 4844 5865 1088 44348 974
leaf_count=873 800 2097 79 40 70 1198 1169 698 37 2059 115 1790 26 33 24 4957 33 816 23 1395 6442 2233 1798 1800 68 4844 5865 1088 44348 974
internal_value=0 0.00158065 0.00427149 -0.000932731 0.00568094 -0.000292413 -0.00273398 -0.00634317 -0.00271545 -0.00372195 1.8933e-05 0.000409883 0.0264877 0.0376536 0.0547313 -0.00146572 0.033856 0.000345145 0.00422092 -0.00238644 0.0025627 0.00354875 -0.00226915 -0.00577685 -0.00931978 -0.0007635 0.00512754 0.00337623 -7.74632e-05 0.00607049
internal_weight=0 14024 6847 7177 6047 73768 8483 3963 2794 2757 65285 55902 123 97 64 7054 103 4520 1927 2593 10465 8675 9383 2741 1868 6642 5944 1904 45437 1089
internal_count=87792 14024 6847 7177 6047 73768 8483 3963 2794 2757 65285 55902 123 97 64 7054 103 4520 1927 2593 10465 8675 9383 2741 1868 6642 5944 1904 45437 1089
is_linear=0
shrinkage=0.0428571


Tree=30
num_leaves=31
num_cat=0
split_feature=30 6 36 61 62 6 1 6 61 63 36 10 6 22 32 18 8 36 5 30 63 20 30 9 47 5 7 47 47 11
split_gain=24.1881 73.1683 63.8267 137.922 118.838 84.8231 74.6822 62.2937 51.7187 135.303 51.1185 47.5168 28.5685 27.9808 26.8481 23.3539 21.9781 21.1781 198.812 62.4534 57.5824 57.5355 60.7478 77.757 56.6369 39.6338 47.4006 34.7262 34.2211 37.2779
threshold=-1.6842811703681944 -0.16789992898702619 -0.069577172398567186 0.44131191074848181 -2.932928085327148 0.14974603801965716 -0.51586332917213429 0.82553920149803173 0.44131191074848181 -0.090786203742027269 -0.1534846946597099 -0.29639841616153711 0.2388260290026665 -0.15863591432571408 0.11761749163269998 0.16085973381996158 -0.42600625753402704 -0.12212199717760085 1.3968366384506228 0.04710765182971955 -0.29116065800189966 -0.27352420985698694 0.18245429545640948 -0.080107871443033205 -0.084844447672367082 -0.36243131756782526 -0.61244431138038624 -0.074228692799806581 -0.073172934353351579 0.61748033761978161
decision_type=2 2 2 2 2 2 2 2 2 2 2 2 2 2 2 2 2 2 2 2 2 2 2 2 2 2 2 2 2 2
left_child=1 11 8 4 -4 6 -5 -7 9 14 -10 15 -11 -6 -3 -1 -12 18 19 25 -20 22 -19 24 -24 -2 -27 -22 29 -23
right_child=17 2 3 5 13 7 -8 -9 10 12 16 -13 -14 -15 -16 -17 -18 21 20 -21 27 28 23 -25 -26 26 -28 -29 -30 -31
leaf_value=-0.15841421294579949 -0.0047540770934898181 0.013452834797638088 -0.15758979542130414 0 -0.085621802583159851 -0.0045279545577007188 0.10717669255699394 0.089120864126526714 0.02159631504408991 0.038040320049575374 -0.013546545347194579 -0.021153090557166826 0.21465207629853353 0.0049315918210412844 -0.021882175999234331 -0.0095061523064116291 -0.036941737178182006 0 0 -0.0075567351866657993 0.00094255641668758634 0.0010523642877668603 0.0024733351950337931 -0.0048649724140400674 0.015127492850257891 -0.021183942589155451 0.01553106137559004 0.10720598727297731 -0.0021855306340070359 0.016870585989391656
leaf_weight=34 1445 252 35 36 21 201 141 47 139 23 655 124 20 156 223 20 505 10838 64 8330 35 19484 3178 2134 6025 208 1779 133 30601 886
leaf_count=34 1445 252 35 36 21 201 141 47 139 23 655 124 20 156 223 20 505 10838 64 8330 35 19484 3178 2134 6025 208 1779 133 30601 886
internal_value=0 -0.00699754 -0.00333499 0.0166836 -0.0309186 0.0420176 0.0823316 0.0105132 -0.0107248 0.00842693 -0.0188816 -0.0536852 0.136019 -0.00202069 -0.00171568 -0.115811 -0.0243145 0.00029972 -0.00260844 -0.00401883 0.0659721 0.000785811 0.00397884 0.00781704 0.0108311 0.00437154 0.0113476 0.0890913 -0.000590081 0.00177356
internal_weight=0 2632 2454 637 212 425 177 248 1817 518 1299 178 43 177 475 54 1160 85140 11994 11762 232 73146 22175 11337 9203 3432 1987 168 50971 20370
internal_count=87772 2632 2454 637 212 425 177 248 1817 518 1299 178 43 177 475 54 1160 85140 11994 11762 232 73146 22175 11337 9203 3432 1987 168 50971 20370
is_linear=0
shrinkage=0.075


Tree=31
num_leaves=31
num_cat=0
split_feature=2 11 51 50 24 63 23 61 61 10 51 18 62 30 34 61 61 47 49 47 49 10 20 61 11 59 59 41 32 6
split_gain=27.1434 44.3304 79.7857 52.8988 43.8784 86.9353 43.8856 35.7633 50.9817 34.7875 99.3699 42.6909 34.139 31.4596 31.023 29.5077 35.9379 26.775 43.0519 31.131 25.3464 24.5177 24.1585 23.1641 31.1075 29.9424 43.0741 22.5207 22.492 21.9072
threshold=0.85643193125724804 0.61748033761978161 -0.079400599002838121 0.46550309658050543 0.52419376373291027 1.4104493856430056 -0.51953190565109242 0.28934727609157568 -0.35721366107463831 0.62780398130416881 -0.082363341003656373 -0.36148658394813532 0.77988249063491832 0.12681704759597781 1.2230393886566164 -0.19773726165294644 -0.44429506361484522 -0.048879787325859063 1.0000000180025095e-35 -0.073172934353351579 -0.50995543599128712 2.7912788391113286 2.3494697809219365 -0.60684192180633534 2.9983114004135136 -0.74769195914268483 -1.4329521059989927 -0.65162014961242665 0.37415680289268499 -1.8924363851547239
decision_type=2 2 2 2 2 2 2 2 2 2 2 2 2 2 2 2 2 2 2 2 2 2 2 2 2 2 2 2 2 2
left_child=1 3 14 4 9 6 -6 8 23 11 -11 -1 15 -9 -3 16 -5 19 -19 -4 -16 -17 -15 24 -2 26 -25 -21 -10 -27
right_child=7 2 17 12 5 -7 -8 13 28 10 -12 -13 -14 22 20 21 -18 18 -20 27 -22 -23 -24 25 -26 29 -28 -29 -30 -31
leaf_value=0.0056864417377910353 -0.0086883646838987472 0.0063891372225946489 0.0062237089805746272 -0.0083349436908388107 0.019408760613346475 0.051811206265425409 -0.0013980912910552387 -0.00023343395366965528 -0.013428936741959118 -0.02071672952963274 -0.00073384143362142603 0.00011416353655989994 0.011910140436357701 0.044367531766590564 0.0014238271598554521 -0.022179313721954599 0.00059294580919621795 0.0015479911152020457 0.045239140070909935 -0.011771112573414124 0.024879054870419762 0.001422994801759806 0 0.0013882608354795765 0.0010150338255255169 -0.0042049427241545902 -0.013471906803612285 0 0 0.0015754217829920252
leaf_weight=1192 707 1035 153 848 118 39 251 29 455 259 1338 73698 86 36 82 157 607 488 21 406 181 23 21 275 393 649 332 211 175 3507
leaf_count=1192 707 1035 153 848 118 39 251 29 455 259 1338 73698 86 36 82 157 607 488 21 406 181 23 21 275 393 649 332 211 175 3507
internal_value=0 0.000176833 0.00394238 5.00587e-05 0.000166552 0.00971313 0.00454603 -0.00177037 -0.00205396 0.00011219 -0.00413956 0.000206365 -0.00500223 0.0165787 0.00905917 -0.0060527 -0.00443009 -0.00104534 0.00387051 -0.00463583 0.0185656 -0.017706 0.0297262 -0.00115593 -0.00498309 -0.000216907 -0.00630756 -0.00775441 -0.00999391 0.000609561
internal_weight=0 81193 2577 78616 76895 408 369 6579 6493 76487 1597 74890 1721 86 1298 1635 1455 1279 509 770 263 180 57 5863 1100 4763 607 617 630 4156
internal_count=87772 81193 2577 78616 76895 408 369 6579 6493 76487 1597 74890 1721 86 1298 1635 1455 1279 509 770 263 180 57 5863 1100 4763 607 617 630 4156
is_linear=0
shrinkage=0.0291667


Tree=32
num_leaves=31
num_cat=0
split_feature=59 59 34 63 5 11 51 47 49 49 5 18 36 62 47 17 40 36 54 49 18 9 62 62 40 62 44 47 41 51
split_gain=23.565 25.3782 55.0544 53.5654 44.9816 37.3787 37.2207 54.1006 40.0018 34.902 39.1225 30.9981 28.4758 22.9596 52.7962 48.4837 36.4882 31.6307 41.3413 30.0209 28.6022 82.2566 31.7959 20.6841 19.4474 19.3053 17.2697 16.4514 15.1949 11.7197
threshold=1.7493247985839846 1.0000000180025095e-35 -0.29428751766681666 -0.2781029194593429 0.22024153918027881 -0.52035015821456898 -0.061452079564332955 -0.07071382179856299 0.59251540899276745 0.33301988244056707 -0.47899603843688959 0.11560248211026193 -0.10601613298058508 0.32555828988552099 -0.063829168677330003 -2.1324565410614009 0.052423791959881789 0.10050202161073686 0.36498676240444189 -0.43275408446788782 0.19500092417001727 -0.11760473251342772 -2.932928085327148 0.45320074260234838 -0.12658720463514325 0.4638523161411286 -0.35524377226829523 -0.075758852064609514 0.32396489381790167 -0.067493863403797136
decision_type=2 2 2 2 2 2 2 2 2 2 2 2 2 2 2 2 2 2 2 2 2 2 2 2 2 2 2 2 2 2
left_child=1 13 3 9 28 -6 7 24 11 10 -3 -8 -9 15 17 -1 19 18 -15 -16 21 -17 -22 -19 -4 -18 27 -2 -5 -11
right_child=26 2 6 4 5 -7 8 12 -10 29 -12 -13 -14 14 16 20 25 23 -20 -21 22 -23 -24 -25 -26 -27 -28 -29 -30 -31
leaf_value=-0.060590338162565871 0.0089615935919334973 -0.001816459994191649 0.0098458472091193464 0.0062985284681736616 0.077089557096879979 0.01045413163872942 0.03302473771497625 0.012488918360815695 -0.016449730864850569 0.0095621607611991819 0.019004489740001414 0.0013879761345732644 -0.016088923234651786 0.0034913284122559925 1.751736046266617e-06 0.012183353131805652 0.062179380810469385 0 -0.0039989043385587368 -0.0047143854390138979 -0.016920085727760228 -0.00048678908889087584 -0.0020190285027169744 0.028071184336196431 -0.0026015877883965618 0 -0.026856396300892253 -0.01468507364415993 -0.0055310208715796949 -0.0051867150791385227
leaf_weight=39 137 257 544 371 34 183 212 90 106 262 1593 209 1078 15664 12744 1566 39 152 2363 5373 426 20538 20574 236 951 25 156 178 1321 351
leaf_count=39 137 257 544 371 34 183 212 90 106 262 1593 209 1078 15664 12744 1566 39 152 2363 5373 426 20538 20574 236 951 25 156 178 1321 351
internal_value=0 0.000116337 0.0030723 0.00698574 2.55845e-05 0.0231215 -0.00214075 -0.00482816 0.0105276 0.0121854 0.0158526 0.0184611 -0.0134755 -0.000157973 0.00081746 -0.000996508 -0.00120278 0.00283809 0.00248287 -0.00137044 -0.000931382 0.000389161 -0.0023442 0.018103 0.0016069 0.0387279 -0.0118404 -0.00287729 -0.0026534 0.000334341
internal_weight=0 87301 7562 4372 1909 217 3190 2663 527 2463 1850 421 1168 79739 36596 43143 18181 18415 18027 18117 43104 22104 21000 388 1495 64 471 315 1692 613
internal_count=87772 87301 7562 4372 1909 217 3190 2663 527 2463 1850 421 1168 79739 36596 43143 18181 18415 18027 18117 43104 22104 21000 388 1495 64 471 315 1692 613
is_linear=0
shrinkage=0.0533333


Tree=33
num_leaves=31
num_cat=0
split_feature=7 6 54 49 40 50 30 30 20 6 23 4 21 21 5 36 38 51 2 20 36 30 34 21 5 23 30 5 47 24
split_gain=22.4318 62.5014 132.838 35.7619 89.0114 56.0732 25.746 22.9492 128.155 34.4485 42.8946 61.1016 31.048 24.691 22.2728 178.005 116.625 44.4546 53.8211 51.1092 32.3953 55.546 48.1976 52.1787 34.855 30.9888 28.2236 21.3174 26.6629 36.6927
threshold=-2.9992727041244502 0.82553920149803173 1.0000000180025095e-35 1.2358629703521731 0.052423791959881789 0.21926371753215793 0.40437118709087377 -2.9546034336090083 0.30079190433025366 -0.20390616357326505 -0.10152257233858107 -0.12493662536144255 -1.0000000180025095e-35 -1.1758524775505064 1.9047875404357912 -0.10601613298058508 -0.75055301189422596 -0.083899073302745805 0.37046620249748236 -0.20472802966833112 -0.12212199717760085 0.04710765182971955 -0.31466135382652277 -0.32981210947036738 0.22024153918027881 -0.49953880906105036 -0.85796114802360524 1.0000000180025095e-35 -0.063829168677330003 -0.4169336706399917
decision_type=2 2 2 2 2 2 2 2 2 2 2 2 2 2 2 2 2 2 2 2 2 2 2 2 2 2 2 2 2 2
